{"learner":{"attributes":{"scikit_learn":"{\"_estimator_type\": \"regressor\"}"},"feature_names":[],"feature_types":[],"gradient_booster":{"model":{"gbtree_model_param":{"num_parallel_tree":"1","num_trees":"150"},"iteration_indptr":[0,1,2,3,4,5,6,7,8,9,10,11,12,13,14,15,16,17,18,19,20,21,22,23,24,25,26,27,28,29,30,31,32,33,34,35,36,37,38,39,40,41,42,43,44,45,46,47,48,49,50,51,52,53,54,55,56,57,58,59,60,61,62,63,64,65,66,67,68,69,70,71,72,73,74,75,76,77,78,79,80,81,82,83,84,85,86,87,88,89,90,91,92,93,94,95,96,97,98,99,100,101,102,103,104,105,106,107,108,109,110,111,112,113,114,115,116,117,118,119,120,121,122,123,124,125,126,127,128,129,130,131,132,133,134,135,136,137,138,139,140,141,142,143,144,145,146,147,148,149,150],"tree_info":[0,0,0,0,0,0,0,0,0,0,0,0,0,0,0,0,0,0,0,0,0,0,0,0,0,0,0,0,0,0,0,0,0,0,0,0,0,0,0,0,0,0,0,0,0,0,0,0,0,0,0,0,0,0,0,0,0,0,0,0,0,0,0,0,0,0,0,0,0,0,0,0,0,0,0,0,0,0,0,0,0,0,0,0,0,0,0,0,0,0,0,0,0,0,0,0,0,0,0,0,0,0,0,0,0,0,0,0,0,0,0,0,0,0,0,0,0,0,0,0,0,0,0,0,0,0,0,0,0,0,0,0,0,0,0,0,0,0,0,0,0,0,0,0,0,0,0,0,0,0],"trees":[{"base_weights":[-0E0,-4.7368828E1,1.2000103E2,-6.7210594E1,-1.3722904E1,2.4557607E0,7.658995E0,-3.6999733E0,-1.7604178E0,-2.3831236E1,4.237359E0,-1.3087587E0,-3.8198563E-1,-3.9289856E-1,4.6608582E-1,-7.362851E-2,7.2983426E-1,-0E0,4.5060046E-2],"categories":[],"categories_nodes":[],"categories_segments":[],"categories_sizes":[],"default_left":[0,0,0,0,0,0,0,0,0,0,0,0,0,0,0,0,0,0,0],"id":0,"left_children":[1,3,5,7,9,-1,-1,-1,-1,11,13,-1,-1,15,-1,-1,17,-1,-1],"loss_changes":[6.025367E5,4.7808344E4,4.7582344E4,2.1765781E3,6.1516772E3,0E0,0E0,0E0,0E0,1.2944922E2,3.5843146E2,0E0,0E0,1.6831493E1,0E0,0E0,8.64867E-1,0E0,0E0],"parents":[2147483647,0,0,1,1,2,2,3,3,4,4,9,9,10,10,13,13,16,16],"right_children":[2,4,6,8,10,-1,-1,-1,-1,12,14,-1,-1,16,-1,-1,18,-1,-1],"split_conditions":[-1.4720495E-1,-2.2693932E-1,-2.9043755E-2,-3.1179056E-1,-2.3283221E-1,2.4557607E0,7.658995E0,-3.6999733E0,-1.7604178E0,-2.4909918E-1,-2.0066673E-1,-1.3087587E0,-3.8198563E-1,-2.1912596E-1,4.6608582E-1,-7.362851E-2,-2.1739425E-1,-0E0,4.5060046E-2],"split_indices":[0,2,0,0,0,0,0,0,0,0,0,0,0,0,0,0,0,0,0],"split_type":[0,0,0,0,0,0,0,0,0,0,0,0,0,0,0,0,0,0,0],"sum_hessian":[1E2,7.3E1,2.7E1,4.4E1,2.9E1,1.1E1,1.6E1,3.3E1,1.1E1,1.8E1,1.1E1,1.4E1,4E0,7E0,4E0,4E0,3E0,1E0,2E0],"tree_param":{"num_deleted":"0","num_feature":"77","num_nodes":"19","size_leaf_vector":"1"}},{"base_weights":[7.8614205E-2,-4.421934E1,1.17758156E2,-6.1596256E1,-7.1387076E0,3.3056488E0,8.295539E0,-3.6667526E0,-1.932539E0,-9.2198175E-1,6.2100224E0,-3.724579E-1,6.1796826E-1,-7.152476E-2,7.148145E-1,-0E0,4.4158857E-2],"categories":[],"categories_nodes":[],"categories_segments":[],"categories_sizes":[],"default_left":[0,0,0,0,0,0,0,0,0,0,0,0,0,0,0,0,0],"id":1,"left_children":[1,3,5,7,9,-1,-1,-1,-1,-1,11,13,-1,-1,15,-1,-1],"loss_changes":[5.527039E5,4.8158094E4,3.874803E4,5.2789688E3,4.591876E3,0E0,0E0,0E0,0E0,0E0,6.4495264E2,1.6002724E1,0E0,0E0,8.342509E-1,0E0,0E0],"parents":[2147483647,0,0,1,1,2,2,3,3,4,4,10,10,11,11,14,14],"right_children":[2,4,6,8,10,-1,-1,-1,-1,-1,12,14,-1,-1,16,-1,-1],"split_conditions":[-1.4142032E-1,-2.1638836E-1,1.9158737E-3,-3.2862863E-1,-2.3283221E-1,3.3056488E0,8.295539E0,-3.6667526E0,-1.932539E0,-9.2198175E-1,-2.0066673E-1,-2.1912596E-1,6.1796826E-1,-7.152476E-2,-2.1739425E-1,-0E0,4.4158857E-2],"split_indices":[0,2,73,0,0,0,0,0,0,0,0,0,0,0,0,0,0],"split_type":[0,0,0,0,0,0,0,0,0,0,0,0,0,0,0,0,0],"sum_hessian":[1E2,7.4E1,2.6E1,4.9E1,2.5E1,1.6E1,1E1,2.8E1,2.1E1,1.3E1,1.2E1,7E0,5E0,4E0,3E0,1E0,2E0],"tree_param":{"num_deleted":"0","num_feature":"77","num_nodes":"17","size_leaf_vector":"1"}},{"base_weights":[2.3881371E-1,-4.1249504E1,1.1585925E2,-5.7849545E1,-3.392074E0,3.36385E0,8.182485E0,-3.5011575E0,-1.8291498E0,-1.3523613E1,1.0485801E1,-7.818782E-1,-7.479604E-2,4.9267578E-1,7.2703713E-1,-0E0,4.327568E-2],"categories":[],"categories_nodes":[],"categories_segments":[],"categories_sizes":[],"default_left":[0,0,0,0,0,0,0,0,0,0,0,0,0,0,0,0,0],"id":2,"left_children":[1,3,5,7,9,-1,-1,-1,-1,11,13,-1,-1,15,-1,-1,-1],"loss_changes":[5.085671E5,4.830675E4,3.1518031E4,6.0819062E3,4.2278076E3,0E0,0E0,0E0,0E0,3.277964E2,4.7522168E2,0E0,0E0,2.0464633E0,0E0,0E0,0E0],"parents":[2147483647,0,0,1,1,2,2,3,3,4,4,9,9,10,10,13,13],"right_children":[2,4,6,8,10,-1,-1,-1,-1,12,14,-1,-1,16,-1,-1,-1],"split_conditions":[-1.2487702E-1,-2.8073043E-1,2.576285E-2,-3.2862863E-1,-2.2706601E-1,3.36385E0,8.182485E0,-3.5011575E0,-1.8291498E0,-2.3283221E-1,-2.0066673E-1,-7.818782E-1,-7.479604E-2,-2.1739425E-1,7.2703713E-1,-0E0,4.327568E-2],"split_indices":[0,0,0,0,0,0,0,0,0,0,0,0,0,0,0,0,0],"split_type":[0,0,0,0,0,0,0,0,0,0,0,0,0,0,0,0,0],"sum_hessian":[1E2,7.5E1,2.5E1,5.1E1,2.4E1,1.6E1,9E0,2.8E1,2.3E1,1.4E1,1E1,1.1E1,3E0,4E0,6E0,2E0,2E0],"tree_param":{"num_deleted":"0","num_feature":"77","num_nodes":"17","size_leaf_vector":"1"}},{"base_weights":[4.0401036E-1,-4.133525E1,1.0616974E2,-5.915697E1,-1.2674497E1,2.2856033E0,6.937253E0,-3.225516E0,-1.5263423E0,-2.207933E1,2.8938375E0,-1.182618E0,-2.9936212E-1,-1.6480606E0,7.736021E0,-1.2830201E-1,-0E0,2.3506356E-2,4.1434047E-1,-0E0,4.5063975E-3],"categories":[],"categories_nodes":[],"categories_segments":[],"categories_sizes":[],"default_left":[0,0,0,0,0,0,0,0,0,0,0,0,0,0,0,0,0,0,0,0,0],"id":3,"left_children":[1,3,5,7,9,-1,-1,-1,-1,11,13,-1,-1,15,17,-1,19,-1,-1,-1,-1],"loss_changes":[4.6799744E5,3.6426562E4,3.968697E4,9.523281E2,5.0618345E3,0E0,0E0,0E0,0E0,4.746289E1,3.8031476E2,0E0,0E0,1.8930893E1,2.8143005E0,0E0,3.2492187E-2,0E0,0E0,0E0,0E0],"parents":[2147483647,0,0,1,1,2,2,3,3,4,4,9,9,10,10,13,13,14,14,16,16],"right_children":[2,4,6,8,10,-1,-1,-1,-1,12,14,-1,-1,16,18,-1,20,-1,-1,-1,-1],"split_conditions":[-1.4720495E-1,-2.9633418E-1,-2.2614341E-2,-3.1179056E-1,-2.420434E-1,2.2856033E0,6.937253E0,-3.225516E0,-1.5263423E0,-2.4909918E-1,-2.1048586E-1,-1.182618E0,-2.9936212E-1,-2.2706601E-1,-2.0066673E-1,-1.2830201E-1,-2.1739425E-1,2.3506356E-2,4.1434047E-1,-0E0,4.5063975E-3],"split_indices":[0,0,0,0,0,0,0,0,0,0,0,0,0,0,0,0,0,0,0,0,0],"split_type":[0,0,0,0,0,0,0,0,0,0,0,0,0,0,0,0,0,0,0,0,0],"sum_hessian":[1E2,7.3E1,2.7E1,4.3E1,3E1,1.2E1,1.5E1,3.3E1,1E1,1.8E1,1.2E1,1.5E1,3E0,7E0,5E0,4E0,3E0,1E0,4E0,2E0,1E0],"tree_param":{"num_deleted":"0","num_feature":"77","num_nodes":"21","size_leaf_vector":"1"}},{"base_weights":[4.7861856E-1,-3.7671574E1,1.067743E2,-5.1469498E1,-1.0922527E-1,3.3761775E0,8.345347E0,-3.2499886E0,-1.6883354E0,-8.194395E0,1.1498992E1,-5.448421E-1,-1.155632E0,4.213005E-2,6.681995E-1,-6.512898E-2,-0E0],"categories":[],"categories_nodes":[],"categories_segments":[],"categories_sizes":[],"default_left":[0,0,0,0,0,0,0,0,0,0,0,0,0,0,0,0,0],"id":4,"left_children":[1,3,5,7,9,-1,-1,-1,-1,11,13,-1,15,-1,-1,-1,-1],"loss_changes":[4.2989094E5,4.0306016E4,3.180775E4,6.8708125E3,2.5285784E3,0E0,0E0,0E0,0E0,2.4246692E2,1.564209E2,0E0,1.1931133E0,0E0,0E0,0E0,0E0],"parents":[2147483647,0,0,1,1,2,2,3,3,4,4,9,9,10,10,12,12],"right_children":[2,4,6,8,10,-1,-1,-1,-1,12,14,-1,16,-1,-1,-1,-1],"split_conditions":[-1.2487702E-1,-2.7275354E-1,1.292414E-1,-3.3848462E-1,-2.1739425E-1,3.3761775E0,8.345347E0,-3.2499886E0,-1.6883354E0,-2.3283221E-1,-2.0066673E-1,-5.448421E-1,-2.1912596E-1,4.213005E-2,6.681995E-1,-6.512898E-2,-0E0],"split_indices":[0,0,0,0,0,0,0,0,0,0,0,0,0,0,0,0,0],"split_type":[0,0,0,0,0,0,0,0,0,0,0,0,0,0,0,0,0],"sum_hessian":[1E2,7.5E1,2.5E1,5.4E1,2.1E1,1.9E1,6E0,2.6E1,2.8E1,1.3E1,8E0,8E0,5E0,2E0,6E0,4E0,1E0],"tree_param":{"num_deleted":"0","num_feature":"77","num_nodes":"17","size_leaf_vector":"1"}},{"base_weights":[6.5414935E-1,-3.597543E1,1.0269504E2,-5.0479588E1,-2.8957713E0,3.1184957E0,7.818464E0,-3.1042993E0,-1.6489362E0,-1.1868682E1,9.352444E0,-6.8427414E-1,-6.8090186E-2,4.7357723E-1,6.4592624E-1,-0E0,4.1287463E-2],"categories":[],"categories_nodes":[],"categories_segments":[],"categories_sizes":[],"default_left":[0,0,0,0,0,0,0,0,0,0,0,0,0,0,0,0,0],"id":5,"left_children":[1,3,5,7,9,-1,-1,-1,-1,11,13,-1,-1,15,-1,-1,-1],"loss_changes":[3.9620156E5,3.687854E4,3.0908094E4,4.6359062E3,3.3053936E3,0E0,0E0,0E0,0E0,2.3850586E2,3.6647803E2,0E0,0E0,1.8393809E0,0E0,0E0,0E0],"parents":[2147483647,0,0,1,1,2,2,3,3,4,4,9,9,10,10,13,13],"right_children":[2,4,6,8,10,-1,-1,-1,-1,12,14,-1,-1,16,-1,-1,-1],"split_conditions":[-1.2487702E-1,-2.8073043E-1,5.3543814E-2,-3.3848462E-1,-2.2706601E-1,3.1184957E0,7.818464E0,-3.1042993E0,-1.6489362E0,-2.3283221E-1,-2.0066673E-1,-6.8427414E-1,-6.8090186E-2,-2.1739425E-1,6.4592624E-1,-0E0,4.1287463E-2],"split_indices":[0,0,0,0,0,0,0,0,0,0,0,0,0,0,0,0,0],"split_type":[0,0,0,0,0,0,0,0,0,0,0,0,0,0,0,0,0],"sum_hessian":[1E2,7.5E1,2.5E1,5.1E1,2.4E1,1.8E1,7E0,2.6E1,2.5E1,1.4E1,1E1,1.1E1,3E0,4E0,6E0,2E0,2E0],"tree_param":{"num_deleted":"0","num_feature":"77","num_nodes":"17","size_leaf_vector":"1"}},{"base_weights":[7.98286E-1,-3.6074642E1,9.419654E1,-5.2135082E1,-1.1576296E1,5.9113194E1,7.806553E0,-2.9907367E0,-1.6731656E0,-1.9731821E1,2.5670664E0,7.9162353E-1,3.1469567E0,-1.0773594E0,-3.1607613E-1,-1.4361397E0,3.4292123E-1,-1.1300196E-1,-0E0,-0E0,3.4072876E-3],"categories":[],"categories_nodes":[],"categories_segments":[],"categories_sizes":[],"default_left":[0,0,0,0,0,0,0,0,0,0,0,0,0,0,0,0,0,0,0,0,0],"id":6,"left_children":[1,3,5,7,9,11,-1,-1,-1,13,15,-1,-1,-1,-1,17,-1,-1,19,-1,-1],"loss_changes":[3.6502884E5,2.7964508E4,3.7067406E4,2.613125E2,4.1080713E3,8.2715625E2,0E0,0E0,0E0,7.121094E1,2.980814E2,0E0,0E0,0E0,0E0,1.5129467E1,0E0,0E0,1.8575374E-2,0E0,0E0],"parents":[2147483647,0,0,1,1,2,2,3,3,4,4,5,5,9,9,10,10,15,15,18,18],"right_children":[2,4,6,8,10,12,-1,-1,-1,14,16,-1,-1,-1,-1,18,-1,-1,20,-1,-1],"split_conditions":[-1.4720495E-1,-2.988028E-1,1.292414E-1,-3.4181905E-1,-2.420434E-1,-1.0606776E-1,7.806553E0,-2.9907367E0,-1.6731656E0,-2.5460747E-1,-2.1048586E-1,7.9162353E-1,3.1469567E0,-1.0773594E0,-3.1607613E-1,-2.2706601E-1,3.4292123E-1,-1.1300196E-1,-2.1739425E-1,-0E0,3.4072876E-3],"split_indices":[0,0,0,0,0,0,0,0,0,0,0,0,0,0,0,0,0,0,0,0,0],"split_type":[0,0,0,0,0,0,0,0,0,0,0,0,0,0,0,0,0,0,0,0,0],"sum_hessian":[1E2,7.3E1,2.7E1,4.2E1,3.1E1,2.1E1,6E0,2.5E1,1.7E1,1.9E1,1.2E1,3E0,1.8E1,1.5E1,4E0,7E0,5E0,4E0,3E0,2E0,1E0],"tree_param":{"num_deleted":"0","num_feature":"77","num_nodes":"21","size_leaf_vector":"1"}},{"base_weights":[9.2946637E-1,-3.450397E1,9.066789E1,-4.8592236E1,-9.286273E0,5.6654022E1,7.5463347E0,-2.6933382E0,-1.3040797E0,-1.6742758E1,3.2129085E0,1.0744437E0,3.1204884E0,-8.6082745E-1,-7.175913E-2,-6.857868E-1,6.6441E0,-5.9387535E-2,2.8434753E-2,1.78833E-2,3.5515812E-1,-0E0,3.3646584E-3],"categories":[],"categories_nodes":[],"categories_segments":[],"categories_sizes":[],"default_left":[0,0,0,0,0,0,0,0,0,0,0,0,0,0,0,0,0,0,0,0,0,0,0],"id":7,"left_children":[1,3,5,7,9,11,-1,-1,-1,13,15,-1,-1,-1,-1,17,19,-1,21,-1,-1,-1,-1],"loss_changes":[3.3701084E5,2.553132E4,3.5422062E4,1.3244922E3,3.0776377E3,6.665E2,0E0,0E0,0E0,3.3621582E1,2.128663E2,0E0,0E0,0E0,0E0,5.646572E0,5.435791E-1,0E0,1.4070805E-2,0E0,0E0,0E0,0E0],"parents":[2147483647,0,0,1,1,2,2,3,3,4,4,5,5,9,9,10,10,15,15,16,16,18,18],"right_children":[2,4,6,8,10,12,-1,-1,-1,14,16,-1,-1,-1,-1,18,20,-1,22,-1,-1,-1,-1],"split_conditions":[-1.4720495E-1,-2.2523107E-1,1.292414E-1,-3.1179056E-1,-2.3283221E-1,-9.790664E-2,7.5463347E0,-2.6933382E0,-1.3040797E0,-2.420434E-1,-2.1048586E-1,1.0744437E0,3.1204884E0,-8.6082745E-1,-7.175913E-2,-2.1912596E-1,-2.0066673E-1,-5.9387535E-2,-2.1739425E-1,1.78833E-2,3.5515812E-1,-0E0,3.3646584E-3],"split_indices":[0,2,0,0,0,0,0,0,0,0,0,0,0,0,0,0,0,0,0,0,0,0,0],"split_type":[0,0,0,0,0,0,0,0,0,0,0,0,0,0,0,0,0,0,0,0,0,0,0],"sum_hessian":[1E2,7.3E1,2.7E1,4.5E1,2.8E1,2.1E1,6E0,3.3E1,1.2E1,1.7E1,1.1E1,5E0,1.6E1,1.6E1,1E0,6E0,5E0,4E0,2E0,1E0,4E0,1E0,1E0],"tree_param":{"num_deleted":"0","num_feature":"77","num_nodes":"23","size_leaf_vector":"1"}},{"base_weights":[1.0905508E0,-3.2962265E1,8.731529E1,-4.602932E1,-8.256512E0,5.4349857E1,7.29479E0,-2.736983E0,-1.5015128E0,-1.5445881E1,3.1268857E0,7.449717E-1,2.8880951E0,-8.3362883E-1,-2.0592086E-1,-6.597663E-1,3.2321435E-1,-5.769076E-2,2.7761841E-2,-0E0,3.3226013E-3],"categories":[],"categories_nodes":[],"categories_segments":[],"categories_sizes":[],"default_left":[0,0,0,0,0,0,0,0,0,0,0,0,0,0,0,0,0,0,0,0,0],"id":8,"left_children":[1,3,5,7,9,11,-1,-1,-1,13,15,-1,-1,-1,-1,17,-1,-1,19,-1,-1],"loss_changes":[3.1117112E5,2.3286492E4,3.3745234E4,1.7274375E3,2.6247139E3,5.033828E2,0E0,0E0,0E0,1.6435547E1,2.0132986E2,0E0,0E0,0E0,0E0,5.4052544E0,0E0,0E0,1.3809888E-2,0E0,0E0],"parents":[2147483647,0,0,1,1,2,2,3,3,4,4,5,5,9,9,10,10,15,15,18,18],"right_children":[2,4,6,8,10,12,-1,-1,-1,14,16,-1,-1,-1,-1,18,-1,-1,20,-1,-1],"split_conditions":[-1.4720495E-1,-2.9506058E-1,1.292414E-1,-3.4181905E-1,-2.3283221E-1,-1.0606776E-1,7.29479E0,-2.736983E0,-1.5015128E0,-2.4703588E-1,-2.1048586E-1,7.449717E-1,2.8880951E0,-8.3362883E-1,-2.0592086E-1,-2.1912596E-1,3.2321435E-1,-5.769076E-2,-2.1739425E-1,-0E0,3.3226013E-3],"split_indices":[0,67,0,0,0,0,0,0,0,0,0,0,0,0,0,0,0,0,0,0,0],"split_type":[0,0,0,0,0,0,0,0,0,0,0,0,0,0,0,0,0,0,0,0,0],"sum_hessian":[1E2,7.3E1,2.7E1,4.6E1,2.7E1,2.1E1,6E0,2.5E1,2.1E1,1.6E1,1.1E1,3E0,1.8E1,1.3E1,3E0,6E0,5E0,4E0,2E0,1E0,1E0],"tree_param":{"num_deleted":"0","num_feature":"77","num_nodes":"21","size_leaf_vector":"1"}},{"base_weights":[1.2073792E0,-3.1514597E1,8.404898E1,-4.3273922E1,-6.6478343E0,5.2090668E1,7.0516305E0,-2.6147964E0,-1.4243926E0,-6.780211E-1,3.0276997E0,1.092831E0,2.9207401E0,-6.344935E-1,6.2622795E0,-6.0635883E-2,-0E0,1.3619614E-2,3.3577618E-1,-0E0,3.2811165E-3],"categories":[],"categories_nodes":[],"categories_segments":[],"categories_sizes":[],"default_left":[0,0,0,0,0,0,0,0,0,0,0,0,0,0,0,0,0,0,0,0,0],"id":9,"left_children":[1,3,5,7,9,11,-1,-1,-1,-1,13,-1,-1,15,17,-1,19,-1,-1,-1,-1],"loss_changes":[2.8725772E5,2.1260773E4,3.2207312E4,2.1724375E3,2.0169591E3,5.981094E2,0E0,0E0,0E0,0E0,1.8901488E2,0E0,0E0,5.200867E0,2.2554321E0,0E0,1.7225161E-2,0E0,0E0,0E0,0E0],"parents":[2147483647,0,0,1,1,2,2,3,3,4,4,5,5,10,10,13,13,14,14,16,16],"right_children":[2,4,6,8,10,12,-1,-1,-1,-1,14,-1,-1,16,18,-1,20,-1,-1,-1,-1],"split_conditions":[-1.4720495E-1,-2.8833887E-1,1.292414E-1,-3.4181905E-1,-2.3283221E-1,-9.764468E-2,7.0516305E0,-2.6147964E0,-1.4243926E0,-6.780211E-1,-2.1048586E-1,1.092831E0,2.9207401E0,-2.2706601E-1,-2.0066673E-1,-6.0635883E-2,-2.1739425E-1,1.3619614E-2,3.3577618E-1,-0E0,3.2811165E-3],"split_indices":[0,0,0,0,0,1,0,0,0,0,0,0,0,0,0,0,0,0,0,0,0],"split_type":[0,0,0,0,0,0,0,0,0,0,0,0,0,0,0,0,0,0,0,0,0],"sum_hessian":[1E2,7.3E1,2.7E1,4.8E1,2.5E1,2.1E1,6E0,2.5E1,2.3E1,1.4E1,1.1E1,6E0,1.5E1,6E0,5E0,3E0,3E0,1E0,4E0,2E0,1E0],"tree_param":{"num_deleted":"0","num_feature":"77","num_nodes":"21","size_leaf_vector":"1"}},{"base_weights":[1.3410418E0,-3.0114002E1,8.095972E1,-4.3526993E1,-9.645575E0,4.817826E1,6.593457E0,-2.5192826E0,-1.4197669E0,-1.6562464E1,2.2949784E0,5.188962E-1,2.5100248E0,-9.10062E-1,-2.4822758E-1,-1.6195602E0,5.666746E0,-9.91387E-2,-0E0,3.3351596E-2,3.2618257E-1],"categories":[],"categories_nodes":[],"categories_segments":[],"categories_sizes":[],"default_left":[0,0,0,0,0,0,0,0,0,0,0,0,0,0,0,0,0,0,0,0,0],"id":10,"left_children":[1,3,5,7,9,11,-1,-1,-1,13,15,-1,-1,-1,-1,17,19,-1,-1,-1,-1],"loss_changes":[2.6536984E5,1.9499375E4,3.0646781E4,2.2051562E2,2.950677E3,7.405859E1,0E0,0E0,0E0,1.00726074E2,2.3361105E2,0E0,0E0,0E0,0E0,3.9129696E0,1.1122711E1,0E0,0E0,0E0,0E0],"parents":[2147483647,0,0,1,1,2,2,3,3,4,4,5,5,9,9,10,10,15,15,16,16],"right_children":[2,4,6,8,10,12,-1,-1,-1,14,16,-1,-1,-1,-1,18,20,-1,-1,-1,-1],"split_conditions":[-1.4720495E-1,-2.988028E-1,5.3543814E-2,-3.5091972E-1,-2.420434E-1,-1.2487702E-1,6.593457E0,-2.5192826E0,-1.4197669E0,-2.5460747E-1,-2.1739425E-1,5.188962E-1,2.5100248E0,-9.10062E-1,-2.4822758E-1,-2.2706601E-1,-2.0066673E-1,-9.91387E-2,-0E0,3.3351596E-2,3.2618257E-1],"split_indices":[0,0,0,0,0,0,0,0,0,0,0,0,0,0,0,0,0,0,0,0,0],"split_type":[0,0,0,0,0,0,0,0,0,0,0,0,0,0,0,0,0,0,0,0,0],"sum_hessian":[1E2,7.3E1,2.7E1,4.2E1,3.1E1,2E1,7E0,2.4E1,1.8E1,1.9E1,1.2E1,2E0,1.8E1,1.5E1,4E0,6E0,6E0,4E0,2E0,2E0,4E0],"tree_param":{"num_deleted":"0","num_feature":"77","num_nodes":"21","size_leaf_vector":"1"}},{"base_weights":[1.4120628E0,-2.8802322E1,7.788064E1,-4.1260216E1,-8.757776E0,4.7791504E1,6.596794E0,-2.2498345E0,-1.0618814E0,-1.5051924E1,2.8668354E0,1.0756294E0,2.7349126E0,-8.491103E-1,-2.527802E-1,-5.853051E-1,5.9254303E0,-5.261863E-2,1.977234E-2,1.3032532E-2,3.1686315E-1,-0E0,2.8232576E-3],"categories":[],"categories_nodes":[],"categories_segments":[],"categories_sizes":[],"default_left":[0,0,0,0,0,0,0,0,0,0,0,0,0,0,0,0,0,0,0,0,0,0,0],"id":11,"left_children":[1,3,5,7,9,11,-1,-1,-1,13,15,-1,-1,-1,-1,17,19,-1,21,-1,-1,-1,-1],"loss_changes":[2.4480403E5,1.779409E4,2.9518562E4,4.4210156E2,2.568336E3,6.7351953E2,0E0,0E0,0E0,1.2286426E2,1.6890662E2,0E0,0E0,0E0,0E0,4.671131E0,5.1226807E-1,0E0,1.0798525E-2,0E0,0E0,0E0,0E0],"parents":[2147483647,0,0,1,1,2,2,3,3,4,4,5,5,9,9,10,10,15,15,16,16,18,18],"right_children":[2,4,6,8,10,12,-1,-1,-1,14,16,-1,-1,-1,-1,18,20,-1,22,-1,-1,-1,-1],"split_conditions":[-1.4720495E-1,-2.9633418E-1,1.292414E-1,-3.1179056E-1,-2.3283221E-1,-9.309078E-2,6.596794E0,-2.2498345E0,-1.0618814E0,-2.5460747E-1,-2.1048586E-1,1.0756294E0,2.7349126E0,-8.491103E-1,-2.527802E-1,-2.1912596E-1,-2.0066673E-1,-5.261863E-2,-2.1739425E-1,1.3032532E-2,3.1686315E-1,-0E0,2.8232576E-3],"split_indices":[0,0,0,0,0,67,0,0,0,0,0,0,0,0,0,0,0,0,0,0,0,0,0],"split_type":[0,0,0,0,0,0,0,0,0,0,0,0,0,0,0,0,0,0,0,0,0,0,0],"sum_hessian":[1E2,7.3E1,2.7E1,4.3E1,3E1,2.1E1,6E0,3.3E1,1E1,1.9E1,1.1E1,7E0,1.4E1,1.4E1,5E0,6E0,5E0,4E0,2E0,1E0,4E0,1E0,1E0],"tree_param":{"num_deleted":"0","num_feature":"77","num_nodes":"23","size_leaf_vector":"1"}},{"base_weights":[1.5241317E0,-2.7526772E1,7.5034004E1,-3.7503826E1,-5.1791024E0,4.7465336E1,6.639918E0,-2.307322E0,-1.254009E0,-1.0911275E1,3.3581467E0,1.2340972E0,2.8792272E0,-5.653083E-1,-3.2413006E-2,-5.838108E-2,2.8826848E-1,-2.1359062E-2,1.9207764E-2,-0E0,2.7879716E-3],"categories":[],"categories_nodes":[],"categories_segments":[],"categories_sizes":[],"default_left":[0,0,0,0,0,0,0,0,0,0,0,0,0,0,0,0,0,0,0,0,0],"id":12,"left_children":[1,3,5,7,9,11,-1,-1,-1,13,15,-1,-1,-1,-1,17,-1,-1,19,-1,-1],"loss_changes":[2.2625077E5,1.62771875E4,2.850411E4,1.9688438E3,1.4463296E3,1.3353203E3,0E0,0E0,0E0,2.3000122E1,1.1934018E2,0E0,0E0,0E0,0E0,1.0694807E0,0E0,0E0,1.0591765E-2,0E0,0E0],"parents":[2147483647,0,0,1,1,2,2,3,3,4,4,5,5,9,9,10,10,15,15,18,18],"right_children":[2,4,6,8,10,12,-1,-1,-1,14,16,-1,-1,-1,-1,18,-1,-1,20,-1,-1],"split_conditions":[-1.4720495E-1,-2.1638836E-1,2.4651833E-1,-3.5091972E-1,-2.2973725E-1,-6.5925375E-2,6.639918E0,-2.307322E0,-1.254009E0,-2.3283221E-1,-2.1048586E-1,1.2340972E0,2.8792272E0,-5.653083E-1,-3.2413006E-2,-2.1912596E-1,2.8826848E-1,-2.1359062E-2,-2.1739425E-1,-0E0,2.7879716E-3],"split_indices":[0,2,0,0,0,0,0,0,0,0,0,0,0,0,0,0,0,0,0,0,0],"split_type":[0,0,0,0,0,0,0,0,0,0,0,0,0,0,0,0,0,0,0,0,0],"sum_hessian":[1E2,7.3E1,2.7E1,4.9E1,2.4E1,2.2E1,5E0,2.4E1,2.5E1,1.4E1,1E1,1E1,1.2E1,1.3E1,1E0,5E0,5E0,3E0,2E0,1E0,1E0],"tree_param":{"num_deleted":"0","num_feature":"77","num_nodes":"21","size_leaf_vector":"1"}},{"base_weights":[1.6468096E0,-2.5013783E1,7.5810585E1,-3.4387077E1,2.9117712E-1,4.7456924E1,6.4324203E0,-2.1020076E0,-1.0569228E0,-5.384125E0,8.648568E0,1.1831449E0,2.7640579E0,-3.396667E-1,-3.7514278E-1,2.9615555E-2,5.0095946E-1,-2.0825004E-2,-0E0],"categories":[],"categories_nodes":[],"categories_segments":[],"categories_sizes":[],"default_left":[0,0,0,0,0,0,0,0,0,0,0,0,0,0,0,0,0,0,0],"id":13,"left_children":[1,3,5,7,9,11,-1,-1,-1,13,15,-1,-1,-1,17,-1,-1,-1,-1],"loss_changes":[2.0944731E5,1.8599105E4,2.3280078E4,2.9870312E3,1.2845612E3,1.996875E2,0E0,0E0,0E0,9.095685E1,8.243628E1,0E0,0E0,0E0,5.5709243E-2,0E0,0E0,0E0,0E0],"parents":[2147483647,0,0,1,1,2,2,3,3,4,4,5,5,9,9,10,10,14,14],"right_children":[2,4,6,8,10,12,-1,-1,-1,14,16,-1,-1,-1,18,-1,-1,-1,-1],"split_conditions":[-1.2487702E-1,-2.7275354E-1,2.4651833E-1,-3.257916E-1,-2.1739425E-1,-6.5925375E-2,6.4324203E0,-2.1020076E0,-1.0569228E0,-2.2973725E-1,-2.0066673E-1,1.1831449E0,2.7640579E0,-3.396667E-1,-2.1912596E-1,2.9615555E-2,5.0095946E-1,-2.0825004E-2,-0E0],"split_indices":[0,0,0,0,0,0,0,0,0,0,0,0,0,0,0,0,0,0,0],"split_type":[0,0,0,0,0,0,0,0,0,0,0,0,0,0,0,0,0,0,0],"sum_hessian":[1E2,7.5E1,2.5E1,5.4E1,2.1E1,2E1,5E0,3E1,2.4E1,1.3E1,8E0,8E0,1.2E1,9E0,4E0,2E0,6E0,3E0,1E0],"tree_param":{"num_deleted":"0","num_feature":"77","num_nodes":"19","size_leaf_vector":"1"}},{"base_weights":[1.7796724E0,-2.5129272E1,6.98377E1,-3.633786E1,-8.018267E0,4.3844234E1,6.231407E0,-2.1315098E0,-1.1927696E0,-1.387033E1,2.0350778E0,1.1463736E0,2.6534958E0,-7.770902E-1,-2.4335365E-1,-1.3680682E0,4.982087E0,-8.364858E-2,-0E0,2.902321E-2,2.8526044E-1],"categories":[],"categories_nodes":[],"categories_segments":[],"categories_sizes":[],"default_left":[0,0,0,0,0,0,0,0,0,0,0,0,0,0,0,0,0,0,0,0,0],"id":14,"left_children":[1,3,5,7,9,11,-1,-1,-1,13,15,-1,-1,-1,-1,17,19,-1,-1,-1,-1],"loss_changes":[1.9398544E5,1.3613242E4,2.5996172E4,3.50625E2,2.1086672E3,1.0220117E3,0E0,0E0,0E0,6.3324707E1,1.7811209E2,0E0,0E0,0E0,0E0,2.7473354E0,6.1398315E0,0E0,0E0,0E0,0E0],"parents":[2147483647,0,0,1,1,2,2,3,3,4,4,5,5,9,9,10,10,15,15,16,16],"right_children":[2,4,6,8,10,12,-1,-1,-1,14,16,-1,-1,-1,-1,18,20,-1,-1,-1,-1],"split_conditions":[-1.4720495E-1,-2.988028E-1,2.4651833E-1,-3.5710964E-1,-2.420434E-1,-6.5925375E-2,6.231407E0,-2.1315098E0,-1.1927696E0,-2.6131323E-1,-2.1739425E-1,1.1463736E0,2.6534958E0,-7.770902E-1,-2.4335365E-1,-2.2706601E-1,-2.0066673E-1,-8.364858E-2,-0E0,2.902321E-2,2.8526044E-1],"split_indices":[0,0,0,0,0,0,0,0,0,0,0,0,0,0,0,0,0,0,0,0,0],"split_type":[0,0,0,0,0,0,0,0,0,0,0,0,0,0,0,0,0,0,0,0,0],"sum_hessian":[1E2,7.3E1,2.7E1,4.2E1,3.1E1,2.2E1,5E0,2.3E1,1.9E1,1.9E1,1.2E1,1E1,1.2E1,1.4E1,5E0,6E0,6E0,4E0,2E0,2E0,4E0],"tree_param":{"num_deleted":"0","num_feature":"77","num_nodes":"21","size_leaf_vector":"1"}},{"base_weights":[1.8617712E0,-2.2845745E1,7.0561806E1,-3.1140106E1,9.6339184E-1,4.3820107E1,6.036676E0,-2.0372314E0,-1.0639511E0,-4.2946258E0,8.052491E0,1.0281652E0,2.500717E0,-2.728326E-1,-3.4231678E-1,6.452605E-2,4.9271423E-1,-1.8910153E-2,-0E0],"categories":[],"categories_nodes":[],"categories_segments":[],"categories_sizes":[],"default_left":[0,0,0,0,0,0,0,0,0,0,0,0,0,0,0,0,0,0,0],"id":15,"left_children":[1,3,5,7,9,11,-1,-1,-1,13,15,-1,-1,-1,17,-1,-1,-1,-1],"loss_changes":[1.7976448E5,1.5553918E4,2.1366172E4,2.7681719E3,9.6857904E2,8.680469E1,0E0,0E0,0E0,5.168863E1,7.3579285E1,0E0,0E0,0E0,3.7960052E-2,0E0,0E0,0E0,0E0],"parents":[2147483647,0,0,1,1,2,2,3,3,4,4,5,5,9,9,10,10,14,14],"right_children":[2,4,6,8,10,12,-1,-1,-1,14,16,-1,-1,-1,18,-1,-1,-1,-1],"split_conditions":[-1.2487702E-1,-2.6777947E-1,2.4651833E-1,-3.5710964E-1,-2.1739425E-1,-7.574678E-2,6.036676E0,-2.0372314E0,-1.0639511E0,-2.2973725E-1,-1.9105023E-1,1.0281652E0,2.500717E0,-2.728326E-1,-2.1912596E-1,6.452605E-2,4.9271423E-1,-1.8910153E-2,-0E0],"split_indices":[0,0,0,0,0,1,0,0,0,0,0,0,0,0,0,0,0,0,0],"split_type":[0,0,0,0,0,0,0,0,0,0,0,0,0,0,0,0,0,0,0],"sum_hessian":[1E2,7.5E1,2.5E1,5.5E1,2E1,2E1,5E0,2.3E1,3.2E1,1.2E1,8E0,7E0,1.3E1,8E0,4E0,3E0,5E0,3E0,1E0],"tree_param":{"num_deleted":"0","num_feature":"77","num_nodes":"19","size_leaf_vector":"1"}},{"base_weights":[1.9646358E0,-2.1813887E1,6.8065735E1,-3.0013786E1,3.042768E-1,4.209374E1,5.8480296E0,-1.9655355E0,-1.0371686E0,-4.788599E0,7.81093E0,1.0543535E0,2.4473274E0,-3.011588E-1,-3.3421108E-1,6.2912814E-2,4.7731683E-1,-1.8437322E-2,-0E0],"categories":[],"categories_nodes":[],"categories_segments":[],"categories_sizes":[],"default_left":[0,0,0,0,0,0,0,0,0,0,0,0,0,0,0,0,0,0,0],"id":16,"left_children":[1,3,5,7,9,11,-1,-1,-1,13,15,-1,-1,-1,17,-1,-1,-1,-1],"loss_changes":[1.6644084E5,1.4233426E4,2.0469078E4,2.3461992E3,1.0357858E3,7.446875E1,0E0,0E0,0E0,6.923471E1,6.744269E1,0E0,0E0,0E0,3.3964276E-2,0E0,0E0,0E0,0E0],"parents":[2147483647,0,0,1,1,2,2,3,3,4,4,5,5,9,9,10,10,14,14],"right_children":[2,4,6,8,10,12,-1,-1,-1,14,16,-1,-1,-1,18,-1,-1,-1,-1],"split_conditions":[-1.2487702E-1,-2.7275354E-1,2.4651833E-1,-3.5952297E-1,-2.1739425E-1,-6.5925375E-2,5.8480296E0,-1.9655355E0,-1.0371686E0,-2.2973725E-1,-1.9105023E-1,1.0543535E0,2.4473274E0,-3.011588E-1,-2.1912596E-1,6.2912814E-2,4.7731683E-1,-1.8437322E-2,-0E0],"split_indices":[0,0,0,0,0,0,0,0,0,0,0,0,0,0,0,0,0,0,0],"split_type":[0,0,0,0,0,0,0,0,0,0,0,0,0,0,0,0,0,0,0],"sum_hessian":[1E2,7.5E1,2.5E1,5.4E1,2.1E1,2E1,5E0,2.2E1,3.2E1,1.3E1,8E0,8E0,1.2E1,9E0,4E0,3E0,5E0,3E0,1E0],"tree_param":{"num_deleted":"0","num_feature":"77","num_nodes":"19","size_leaf_vector":"1"}},{"base_weights":[2.0576344E0,-2.1945515E1,6.2726517E1,-1.635101E0,-7.902011E0,3.8934036E1,5.665279E0,-1.2880148E1,1.8419526E0,1.0250793E0,2.3494344E0,-7.128846E-1,-2.1781163E-1,-1.1908866E0,4.48303E0,-7.2525136E-2,-0E0,2.5893936E-2,2.5541338E-1],"categories":[],"categories_nodes":[],"categories_segments":[],"categories_sizes":[],"default_left":[0,0,0,0,0,0,0,0,0,0,0,0,0,0,0,0,0,0,0],"id":17,"left_children":[1,3,5,-1,7,9,-1,11,13,-1,-1,-1,-1,15,17,-1,-1,-1,-1],"loss_changes":[1.542044E5,1.0624035E4,2.256321E4,0E0,1.888001E3,6.8666797E2,0E0,6.999463E1,1.4275006E2,0E0,0E0,0E0,0E0,1.9638081E0,3.1237793E0,0E0,0E0,0E0,0E0],"parents":[2147483647,0,0,1,1,2,2,4,4,5,5,7,7,8,8,13,13,14,14],"right_children":[2,4,6,-1,8,10,-1,12,14,-1,-1,-1,-1,16,18,-1,-1,-1,-1],"split_conditions":[-1.4720495E-1,-2.3723812E-1,2.4651833E-1,-1.635101E0,-2.420434E-1,-6.5925375E-2,5.665279E0,-2.6131323E-1,-2.1739425E-1,1.0250793E0,2.3494344E0,-7.128846E-1,-2.1781163E-1,-2.2706601E-1,-2.0066673E-1,-7.2525136E-2,-0E0,2.5893936E-2,2.5541338E-1],"split_indices":[0,3,0,0,0,0,0,0,0,0,0,0,0,0,0,0,0,0,0],"split_type":[0,0,0,0,0,0,0,0,0,0,0,0,0,0,0,0,0,0,0],"sum_hessian":[1E2,7.3E1,2.7E1,3.9E1,3.4E1,2.2E1,5E0,2.2E1,1.2E1,1E1,1.2E1,1.7E1,5E0,6E0,6E0,4E0,2E0,2E0,4E0],"tree_param":{"num_deleted":"0","num_feature":"77","num_nodes":"19","size_leaf_vector":"1"}},{"base_weights":[2.1491208E0,-1.9354193E1,6.4901505E1,-2.7126137E1,1.7639431E0,1.982324E0,5.488239E0,-1.8260586E0,-9.389295E-1,-3.1226919E0,9.74204E0,-2.4311028E-1,-0E0,3.144989E-2,5.1613563E-1,-3.0558667E-1,2.5376052E-2,-1.6767567E-2,-0E0],"categories":[],"categories_nodes":[],"categories_segments":[],"categories_sizes":[],"default_left":[0,0,0,0,0,0,0,0,0,0,0,0,0,0,0,0,0,0,0],"id":18,"left_children":[1,3,5,7,9,-1,-1,-1,-1,11,13,-1,15,-1,-1,17,-1,-1,-1],"loss_changes":[1.4284602E5,1.3160461E4,1.7237438E4,2.380625E3,1.040168E3,0E0,0E0,0E0,0E0,9.4281006E1,1.1534607E1,0E0,1.9415708E0,0E0,0E0,2.1080434E-2,0E0,0E0,0E0],"parents":[2147483647,0,0,1,1,2,2,3,3,4,4,9,9,10,10,12,12,15,15],"right_children":[2,4,6,8,10,-1,-1,-1,-1,12,14,-1,16,-1,-1,18,-1,-1,-1],"split_conditions":[-1.0606776E-1,-2.6777947E-1,2.4651833E-1,-3.0180094E-1,-2.0066673E-1,1.982324E0,5.488239E0,-1.8260586E0,-9.389295E-1,-2.2973725E-1,-1.9105023E-1,-2.4311028E-1,-2.1739425E-1,3.144989E-2,5.1613563E-1,-2.1912596E-1,2.5376052E-2,-1.6767567E-2,-0E0],"split_indices":[0,0,0,2,0,0,0,0,0,0,0,0,0,0,0,0,0,0,0],"split_type":[0,0,0,0,0,0,0,0,0,0,0,0,0,0,0,0,0,0,0],"sum_hessian":[1E2,7.6E1,2.4E1,5.5E1,2.1E1,1.9E1,5E0,2.1E1,3.4E1,1.4E1,7E0,8E0,6E0,1E0,6E0,4E0,2E0,3E0,1E0],"tree_param":{"num_deleted":"0","num_feature":"77","num_nodes":"19","size_leaf_vector":"1"}},{"base_weights":[2.1877756E0,-1.7471512E1,6.570134E1,-2.566503E1,3.8817706E0,1.9746411E0,5.3167315E0,-1.5778779E0,-7.233936E-1,-2.0861883E0,6.114067E-1,-3.657409E0,8.0296326E-1,-2.01739E-1,-1.54110715E-2,-0E0,5.809498E-2],"categories":[],"categories_nodes":[],"categories_segments":[],"categories_sizes":[],"default_left":[0,0,0,0,0,0,0,0,0,0,0,0,0,0,0,0,0],"id":19,"left_children":[1,3,5,7,9,-1,-1,-1,-1,11,-1,13,15,-1,-1,-1,-1],"loss_changes":[1.3214919E5,1.4514082E4,1.373343E4,2.4310273E3,1.3420831E3,0E0,0E0,0E0,0E0,9.169061E1,0E0,2.749817E0,2.9420633E0,0E0,0E0,0E0,0E0],"parents":[2147483647,0,0,1,1,2,2,3,3,4,4,9,9,11,11,12,12],"right_children":[2,4,6,8,10,-1,-1,-1,-1,12,-1,14,16,-1,-1,-1,-1],"split_conditions":[-9.790664E-2,-2.6131323E-1,2.4651833E-1,-3.1179056E-1,-1.9105023E-1,1.9746411E0,5.3167315E0,-1.5778779E0,-7.233936E-1,-2.2706601E-1,6.114067E-1,-2.2973725E-1,-2.1739425E-1,-2.01739E-1,-1.54110715E-2,-0E0,5.809498E-2],"split_indices":[0,0,0,0,0,0,0,0,0,0,0,0,0,0,0,0,0],"split_type":[0,0,0,0,0,0,0,0,0,0,0,0,0,0,0,0,0],"sum_hessian":[1E2,7.8E1,2.2E1,5.6E1,2.2E1,1.7E1,5E0,3.3E1,2.3E1,1.4E1,8E0,9E0,5E0,7E0,2E0,2E0,3E0],"tree_param":{"num_deleted":"0","num_feature":"77","num_nodes":"17","size_leaf_vector":"1"}},{"base_weights":[2.2356699E0,-1.3731697E1,7.510167E1,-2.4230953E1,8.5733185E0,2.1458511E0,5.1505837E0,-1.6960516E0,-1.6791838E1,-1.094236E0,8.681299E-1,-8.504421E-1,-7.910814E-2,-1.5507855E-1,1.5016962E0,-0E0,1.00449696E-1],"categories":[],"categories_nodes":[],"categories_segments":[],"categories_sizes":[],"default_left":[0,0,0,0,0,0,0,0,0,0,0,0,0,0,0,0,0],"id":20,"left_children":[1,3,5,7,9,-1,-1,-1,11,13,-1,-1,-1,-1,15,-1,-1],"loss_changes":[1.23054805E5,2.1028729E4,3.5124766E3,2.514918E3,2.6386584E3,0E0,0E0,0E0,1.4109375E1,1.05757996E2,0E0,0E0,0E0,0E0,7.9565716E0,0E0,0E0],"parents":[2147483647,0,0,1,1,2,2,3,3,4,4,8,8,9,9,14,14],"right_children":[2,4,6,8,10,-1,-1,-1,12,14,-1,-1,-1,-1,16,-1,-1],"split_conditions":[-2.9043755E-2,-2.5460747E-1,2.4651833E-1,-3.653813E-1,-1.8751314E-1,2.1458511E0,5.1505837E0,-1.6960516E0,-2.6131323E-1,-2.2706601E-1,8.681299E-1,-8.504421E-1,-7.910814E-2,-1.5507855E-1,-2.1739425E-1,-0E0,1.00449696E-1],"split_indices":[0,0,0,0,0,0,0,0,0,0,0,0,0,0,0,0,0],"split_type":[0,0,0,0,0,0,0,0,0,0,0,0,0,0,0,0,0],"sum_hessian":[1E2,8.4E1,1.6E1,5.7E1,2.7E1,1.1E1,5E0,2E1,3.7E1,1.4E1,1.3E1,3.6E1,1E0,8E0,6E0,2E0,4E0],"tree_param":{"num_deleted":"0","num_feature":"77","num_nodes":"17","size_leaf_vector":"1"}},{"base_weights":[2.282388E0,-1.3109064E1,7.250392E1,-2.315402E1,8.225088E0,2.0615501E0,4.989628E0,-1.5033687E0,-7.1117604E-1,-1.0448945E0,1.665724E1,-1.4943944E-1,1.4570525E0,8.2346536E-2,8.597604E-1,-0E0,9.757974E-2],"categories":[],"categories_nodes":[],"categories_segments":[],"categories_sizes":[],"default_left":[0,0,0,0,0,0,0,0,0,0,0,0,0,0,0,0,0],"id":21,"left_children":[1,3,5,7,9,-1,-1,-1,-1,11,13,-1,15,-1,-1,-1,-1],"loss_changes":[1.1429374E5,1.9245344E4,3.5888125E3,2.3328086E3,2.428417E3,0E0,0E0,0E0,0E0,9.880779E1,6.5585938E0,0E0,7.554037E0,0E0,0E0,0E0,0E0],"parents":[2147483647,0,0,1,1,2,2,3,3,4,4,9,9,10,10,12,12],"right_children":[2,4,6,8,10,-1,-1,-1,-1,12,14,-1,16,-1,-1,-1,-1],"split_conditions":[-2.9043755E-2,-2.5460747E-1,2.4651833E-1,-3.2862863E-1,-1.8751314E-1,2.0615501E0,4.989628E0,-1.5033687E0,-7.1117604E-1,-2.2706601E-1,-1.8252067E-1,-1.4943944E-1,-2.1739425E-1,8.2346536E-2,8.597604E-1,-0E0,9.757974E-2],"split_indices":[0,0,0,0,0,0,0,0,0,0,0,0,0,0,0,0,0],"split_type":[0,0,0,0,0,0,0,0,0,0,0,0,0,0,0,0,0],"sum_hessian":[1E2,8.4E1,1.6E1,5.7E1,2.7E1,1.1E1,5E0,2.8E1,2.9E1,1.4E1,1.3E1,8E0,6E0,1E0,1.2E1,2E0,4E0],"tree_param":{"num_deleted":"0","num_feature":"77","num_nodes":"17","size_leaf_vector":"1"}},{"base_weights":[2.335776E0,-1.2498441E1,6.999733E1,-2.186158E1,8.420413E0,1.9805605E0,4.833702E0,-1.5569462E0,-1.5008807E1,-6.202774E-1,8.003637E-1,-7.7879286E-1,-1.789877E-1,-1.2323796E-1,1.4136835E0,-0E0,9.479174E-2],"categories":[],"categories_nodes":[],"categories_segments":[],"categories_sizes":[],"default_left":[0,0,0,0,0,0,0,0,0,0,0,0,0,0,0,0,0],"id":22,"left_children":[1,3,5,7,9,-1,-1,-1,11,13,-1,-1,-1,-1,15,-1,-1],"loss_changes":[1.06121305E5,1.7619486E4,3.6407422E3,2.3837344E3,2.0496846E3,0E0,0E0,0E0,6.013086E1,7.258098E1,0E0,0E0,0E0,0E0,7.1728153E0,0E0,0E0],"parents":[2147483647,0,0,1,1,2,2,3,3,4,4,8,8,9,9,14,14],"right_children":[2,4,6,8,10,-1,-1,-1,12,14,-1,-1,-1,-1,16,-1,-1],"split_conditions":[-2.9043755E-2,-2.4909918E-1,2.4651833E-1,-3.653813E-1,-1.8751314E-1,1.9805605E0,4.833702E0,-1.5569462E0,-2.6777947E-1,-2.2706601E-1,8.003637E-1,-7.7879286E-1,-1.789877E-1,-1.2323796E-1,-2.1739425E-1,-0E0,9.479174E-2],"split_indices":[0,0,0,0,0,0,0,0,0,0,0,0,0,0,0,0,0],"split_type":[0,0,0,0,0,0,0,0,0,0,0,0,0,0,0,0,0],"sum_hessian":[1E2,8.4E1,1.6E1,5.8E1,2.6E1,1.1E1,5E0,2E1,3.8E1,1.3E1,1.3E1,3.5E1,3E0,7E0,6E0,2E0,4E0],"tree_param":{"num_deleted":"0","num_feature":"77","num_nodes":"17","size_leaf_vector":"1"}},{"base_weights":[2.3654618E0,-1.1935081E1,6.757867E1,-2.0895454E1,8.078299E0,1.9027529E0,4.682649E0,-1.3121156E0,-5.586244E-1,-5.900593E-1,1.5356976E1,-2.200511E0,1.5955839E0,7.1312524E-2,7.933554E-1,-1.1892464E-1,-0E0,-0E0,9.208336E-2],"categories":[],"categories_nodes":[],"categories_segments":[],"categories_sizes":[],"default_left":[0,0,0,0,0,0,0,0,0,0,0,0,0,0,0,0,0,0,0],"id":23,"left_children":[1,3,5,7,9,-1,-1,-1,-1,11,13,15,17,-1,-1,-1,-1,-1,-1],"loss_changes":[9.8587125E4,1.6133512E4,3.6710234E3,2.2168203E3,1.8864497E3,0E0,0E0,0E0,0E0,6.806112E1,1.122583E1,3.3075447E0,3.375063E0,0E0,0E0,0E0,0E0,0E0,0E0],"parents":[2147483647,0,0,1,1,2,2,3,3,4,4,9,9,10,10,11,11,12,12],"right_children":[2,4,6,8,10,-1,-1,-1,-1,12,14,16,18,-1,-1,-1,-1,-1,-1],"split_conditions":[-2.9043755E-2,-2.4909918E-1,2.4651833E-1,-3.077008E-1,-1.8751314E-1,1.9027529E0,4.682649E0,-1.3121156E0,-5.586244E-1,-2.1912596E-1,-1.8252067E-1,-2.2706601E-1,-2.1739425E-1,7.1312524E-2,7.933554E-1,-1.1892464E-1,-0E0,-0E0,9.208336E-2],"split_indices":[0,0,0,0,0,0,0,0,0,0,0,0,0,0,0,0,0,0,0],"split_type":[0,0,0,0,0,0,0,0,0,0,0,0,0,0,0,0,0,0,0],"sum_hessian":[1E2,8.4E1,1.6E1,5.8E1,2.6E1,1.1E1,5E0,3.4E1,2.4E1,1.3E1,1.3E1,8E0,5E0,1E0,1.2E1,7E0,1E0,1E0,4E0],"tree_param":{"num_deleted":"0","num_feature":"77","num_nodes":"19","size_leaf_vector":"1"}},{"base_weights":[2.4096172E0,-1.1373109E1,6.524479E1,-1.9944324E1,7.7635612E0,1.8280016E0,4.536316E0,-1.4322044E0,-1.3555847E1,-1.0571839E0,1.4294179E1,-7.1035385E-1,-2.0091367E-1,-2.2952437E0,6.368351E-1,1.7757402E-1,7.8461486E-1,-1.2834692E-1,-4.1693114E-3,-0E0,4.701977E-2],"categories":[],"categories_nodes":[],"categories_segments":[],"categories_sizes":[],"default_left":[0,0,0,0,0,0,0,0,0,0,0,0,0,0,0,0,0,0,0,0,0],"id":24,"left_children":[1,3,5,7,9,-1,-1,-1,11,13,15,-1,-1,17,19,-1,-1,-1,-1,-1,-1],"loss_changes":[9.153597E4,1.4759012E4,3.6822578E3,2.1409883E3,1.7423512E3,0E0,0E0,0E0,4.694287E1,3.9161354E1,4.96521E1,0E0,0E0,6.67038E-2,2.0615888E0,0E0,0E0,0E0,0E0,0E0,0E0],"parents":[2147483647,0,0,1,1,2,2,3,3,4,4,8,8,9,9,10,10,13,13,14,14],"right_children":[2,4,6,8,10,-1,-1,-1,12,14,16,-1,-1,18,20,-1,-1,-1,-1,-1,-1],"split_conditions":[-2.9043755E-2,-2.4909918E-1,2.4651833E-1,-3.653813E-1,-1.9105023E-1,1.8280016E0,4.536316E0,-1.4322044E0,-2.7275354E-1,-2.2706601E-1,-1.4720495E-1,-7.1035385E-1,-2.0091367E-1,-2.2973725E-1,-2.1739425E-1,1.7757402E-1,7.8461486E-1,-1.2834692E-1,-4.1693114E-3,-0E0,4.701977E-2],"split_indices":[0,0,0,0,0,0,0,0,0,0,0,0,0,0,0,0,0,0,0,0,0],"split_type":[0,0,0,0,0,0,0,0,0,0,0,0,0,0,0,0,0,0,0,0,0],"sum_hessian":[1E2,8.4E1,1.6E1,5.8E1,2.6E1,1.1E1,5E0,2E1,3.8E1,1.2E1,1.4E1,3.4E1,4E0,7E0,5E0,3E0,1.1E1,5E0,2E0,2E0,3E0],"tree_param":{"num_deleted":"0","num_feature":"77","num_nodes":"21","size_leaf_vector":"1"}},{"base_weights":[2.430546E0,-1.0856497E1,6.2992706E1,-1.8636633E1,8.4293585E0,1.7561873E0,4.3945565E0,-1.3699346E0,-1.2603209E1,-0E0,1.4195882E1,-6.9787425E-1,-2.724311E-1,-1.1746132E0,8.7176405E-2,6.8201445E-2,7.3226E-1,-6.9990255E-2,-0E0],"categories":[],"categories_nodes":[],"categories_segments":[],"categories_sizes":[],"default_left":[0,0,0,0,0,0,0,0,0,0,0,0,0,0,0,0,0,0,0],"id":25,"left_children":[1,3,5,7,9,-1,-1,-1,11,13,15,-1,-1,17,-1,-1,-1,-1,-1],"loss_changes":[8.503919E4,1.3545751E4,3.6767422E3,2.2145703E3,1.3059087E3,0E0,0E0,0E0,1.4968066E2,3.5076393E1,3.0151367E-1,0E0,0E0,1.8784714E0,0E0,0E0,0E0,0E0,0E0],"parents":[2147483647,0,0,1,1,2,2,3,3,4,4,8,8,9,9,10,10,13,13],"right_children":[2,4,6,8,10,-1,-1,-1,12,14,16,-1,-1,18,-1,-1,-1,-1,-1],"split_conditions":[-2.9043755E-2,-2.4414356E-1,2.4651833E-1,-3.653813E-1,-1.8751314E-1,1.7561873E0,4.3945565E0,-1.3699346E0,-2.8073043E-1,-2.1739425E-1,-1.8252067E-1,-6.9787425E-1,-2.724311E-1,-2.2706601E-1,8.7176405E-2,6.8201445E-2,7.3226E-1,-6.9990255E-2,-0E0],"split_indices":[0,0,0,0,0,0,0,0,0,0,0,0,0,0,0,0,0,0,0],"split_type":[0,0,0,0,0,0,0,0,0,0,0,0,0,0,0,0,0,0,0],"sum_hessian":[1E2,8.4E1,1.6E1,6E1,2.4E1,1.1E1,5E0,2E1,4E1,1.1E1,1.3E1,3.1E1,9E0,7E0,4E0,1E0,1.2E1,5E0,2E0],"tree_param":{"num_deleted":"0","num_feature":"77","num_nodes":"19","size_leaf_vector":"1"}},{"base_weights":[2.443555E0,-1.0366488E1,6.0819508E1,-1.7819416E1,8.101433E0,1.6871945E0,4.2572265E0,-1.1589751E0,-9.538701E0,-0E0,1.3642428E1,-5.0663835E-1,-1.4792225E-1,-1.1396172E0,8.4685735E-2,1.3272339E-1,7.2502327E-1,-6.7803E-2,-0E0],"categories":[],"categories_nodes":[],"categories_segments":[],"categories_sizes":[],"default_left":[0,0,0,0,0,0,0,0,0,0,0,0,0,0,0,0,0,0,0],"id":26,"left_children":[1,3,5,7,9,-1,-1,-1,11,13,15,-1,-1,17,-1,-1,-1,-1,-1],"loss_changes":[7.90156E4,1.2427211E4,3.656586E3,2.0675332E3,1.205757E3,0E0,0E0,0E0,1.1586914E0,3.306796E1,1.0661621E0,0E0,0E0,1.723918E0,0E0,0E0,0E0,0E0,0E0],"parents":[2147483647,0,0,1,1,2,2,3,3,4,4,8,8,9,9,10,10,13,13],"right_children":[2,4,6,8,10,-1,-1,-1,12,14,16,-1,-1,18,-1,-1,-1,-1,-1],"split_conditions":[-2.9043755E-2,-2.4414356E-1,2.4651833E-1,-3.1179056E-1,-1.8751314E-1,1.6871945E0,4.2572265E0,-1.1589751E0,-2.6131323E-1,-2.1739425E-1,-1.4720495E-1,-5.0663835E-1,-1.4792225E-1,-2.2706601E-1,8.4685735E-2,1.3272339E-1,7.2502327E-1,-6.7803E-2,-0E0],"split_indices":[0,0,0,0,0,0,0,0,0,0,0,0,0,0,0,0,0,0,0],"split_type":[0,0,0,0,0,0,0,0,0,0,0,0,0,0,0,0,0,0,0],"sum_hessian":[1E2,8.4E1,1.6E1,6E1,2.4E1,1.1E1,5E0,3.3E1,2.7E1,1.1E1,1.3E1,2.3E1,4E0,7E0,4E0,2E0,1.1E1,5E0,2E0],"tree_param":{"num_deleted":"0","num_feature":"77","num_nodes":"19","size_leaf_vector":"1"}},{"base_weights":[2.4669023E0,-9.880856E0,5.8722385E1,-1.6823996E1,8.273127E0,1.6209118E0,4.1241875E0,-1.259982E0,-1.1253272E1,-0E0,1.2739394E1,-6.4235455E-1,-2.7345684E-1,-7.171266E-1,4.1547775E-2,1.6282019E-1,6.965403E-1,-3.954463E-2,-0E0],"categories":[],"categories_nodes":[],"categories_segments":[],"categories_sizes":[],"default_left":[0,0,0,0,0,0,0,0,0,0,0,0,0,0,0,0,0,0,0],"id":27,"left_children":[1,3,5,7,9,-1,-1,-1,11,13,15,-1,-1,17,-1,-1,-1,-1,-1],"loss_changes":[7.338516E4,1.1400634E4,3.6236914E3,2.062498E3,9.794065E2,0E0,0E0,0E0,1.5820996E2,8.771358E0,2.1601074E1,0E0,0E0,3.7565374E-1,0E0,0E0,0E0,0E0,0E0],"parents":[2147483647,0,0,1,1,2,2,3,3,4,4,8,8,9,9,10,10,13,13],"right_children":[2,4,6,8,10,-1,-1,-1,12,14,16,-1,-1,18,-1,-1,-1,-1,-1],"split_conditions":[-2.9043755E-2,-2.420434E-1,2.4651833E-1,-3.653813E-1,-1.9105023E-1,1.6209118E0,4.1241875E0,-1.259982E0,-2.1638836E-1,-2.1739425E-1,-1.4720495E-1,-6.4235455E-1,-2.7345684E-1,-2.1912596E-1,4.1547775E-2,1.6282019E-1,6.965403E-1,-3.954463E-2,-0E0],"split_indices":[0,0,0,0,0,0,0,0,2,0,0,0,0,0,0,0,0,0,0],"split_type":[0,0,0,0,0,0,0,0,0,0,0,0,0,0,0,0,0,0,0],"sum_hessian":[1E2,8.4E1,1.6E1,6.1E1,2.3E1,1.1E1,5E0,2E1,4.1E1,9E0,1.4E1,2.9E1,1.2E1,6E0,3E0,3E0,1.1E1,5E0,1E0],"tree_param":{"num_deleted":"0","num_feature":"77","num_nodes":"19","size_leaf_vector":"1"}},{"base_weights":[2.4725463E0,-9.432209E0,5.6698654E1,-1.608791E1,7.9624624E0,1.5572332E0,3.9953072E0,-1.2204546E0,-1.0902804E1,-0E0,1.2259962E1,-6.210162E-1,-2.625184E-1,-6.9515824E-1,4.0509034E-2,1.5874952E-1,6.691765E-1,-4.1059114E-2,-0E0],"categories":[],"categories_nodes":[],"categories_segments":[],"categories_sizes":[],"default_left":[0,0,0,0,0,0,0,0,0,0,0,0,0,0,0,0,0,0,0],"id":28,"left_children":[1,3,5,7,9,-1,-1,-1,11,13,15,-1,-1,17,-1,-1,-1,-1,-1],"loss_changes":[6.8190414E4,1.0472863E4,3.5797852E3,1.8923496E3,9.0679236E2,0E0,0E0,0E0,1.5502051E2,8.287561E0,1.2934082E1,0E0,0E0,3.7117767E-1,0E0,0E0,0E0,0E0,0E0],"parents":[2147483647,0,0,1,1,2,2,3,3,4,4,8,8,9,9,10,10,13,13],"right_children":[2,4,6,8,10,-1,-1,-1,12,14,16,-1,-1,18,-1,-1,-1,-1,-1],"split_conditions":[-2.9043755E-2,-2.420434E-1,2.4651833E-1,-3.696737E-1,-1.9105023E-1,1.5572332E0,3.9953072E0,-1.2204546E0,-2.1638836E-1,-2.1739425E-1,-1.4720495E-1,-6.210162E-1,-2.625184E-1,-2.2706601E-1,4.0509034E-2,1.5874952E-1,6.691765E-1,-4.1059114E-2,-0E0],"split_indices":[0,0,0,0,0,0,0,0,2,0,0,0,0,0,0,0,0,0,0],"split_type":[0,0,0,0,0,0,0,0,0,0,0,0,0,0,0,0,0,0,0],"sum_hessian":[1E2,8.4E1,1.6E1,6.1E1,2.3E1,1.1E1,5E0,1.9E1,4.2E1,9E0,1.4E1,3E1,1.2E1,6E0,3E0,3E0,1.1E1,4E0,2E0],"tree_param":{"num_deleted":"0","num_feature":"77","num_nodes":"19","size_leaf_vector":"1"}},{"base_weights":[2.4732149E0,-9.00491E0,5.47457E1,-1.53852625E1,7.662675E0,1.4960561E0,3.870454E0,-9.990043E-1,-3.8519576E-1,-0E0,1.1798952E1,-6.7690873E-1,3.949623E-2,1.5478072E-1,6.4288753E-1,-3.988593E-2,-0E0],"categories":[],"categories_nodes":[],"categories_segments":[],"categories_sizes":[],"default_left":[0,0,0,0,0,0,0,0,0,0,0,0,0,0,0,0,0],"id":29,"left_children":[1,3,5,7,9,-1,-1,-1,-1,11,13,15,-1,-1,-1,-1,-1],"loss_changes":[6.336941E4,9.621143E3,3.5264023E3,1.7417021E3,8.400281E2,0E0,0E0,0E0,0E0,7.867734E0,5.342041E0,3.3063602E-1,0E0,0E0,0E0,0E0,0E0],"parents":[2147483647,0,0,1,1,2,2,3,3,4,4,9,9,10,10,11,11],"right_children":[2,4,6,8,10,-1,-1,-1,-1,12,14,16,-1,-1,-1,-1,-1],"split_conditions":[-2.9043755E-2,-2.420434E-1,2.4651833E-1,-3.0681652E-1,-1.9105023E-1,1.4960561E0,3.870454E0,-9.990043E-1,-3.8519576E-1,-2.1739425E-1,-1.4720495E-1,-2.2706601E-1,3.949623E-2,1.5478072E-1,6.4288753E-1,-3.988593E-2,-0E0],"split_indices":[0,0,0,0,0,0,0,0,0,0,0,0,0,0,0,0,0],"split_type":[0,0,0,0,0,0,0,0,0,0,0,0,0,0,0,0,0],"sum_hessian":[1E2,8.4E1,1.6E1,6.1E1,2.3E1,1.1E1,5E0,3.5E1,2.6E1,9E0,1.4E1,6E0,3E0,3E0,1.1E1,4E0,2E0],"tree_param":{"num_deleted":"0","num_feature":"77","num_nodes":"17","size_leaf_vector":"1"}},{"base_weights":[2.4894881E0,-8.574047E0,5.286102E1,-1.520613E1,6.1942005E0,1.4372822E0,3.7495027E0,-1.1246142E0,-1.0255802E1,-7.6095325E-1,5.677827E-1,-5.3136414E-1,-1.1899725E-1,-8.763603E-2,5.141134E-1,-0E0,3.85088E-2],"categories":[],"categories_nodes":[],"categories_segments":[],"categories_sizes":[],"default_left":[0,0,0,0,0,0,0,0,0,0,0,0,0,0,0,0,0],"id":30,"left_children":[1,3,5,7,9,-1,-1,-1,11,13,-1,-1,-1,-1,15,-1,-1],"loss_changes":[5.884886E4,8.821744E3,3.464961E3,1.4426738E3,1.0881752E3,0E0,0E0,0E0,2.0989258E1,2.4149048E1,0E0,0E0,0E0,0E0,1.4445248E0,0E0,0E0],"parents":[2147483647,0,0,1,1,2,2,3,3,4,4,8,8,9,9,14,14],"right_children":[2,4,6,8,10,-1,-1,-1,12,14,-1,-1,-1,-1,16,-1,-1],"split_conditions":[-2.9043755E-2,-2.4909918E-1,2.4651833E-1,-3.696737E-1,-1.9105023E-1,1.4372822E0,3.7495027E0,-1.1246142E0,-2.6777947E-1,-2.2706601E-1,5.677827E-1,-5.3136414E-1,-1.1899725E-1,-8.763603E-2,-2.1739425E-1,-0E0,3.85088E-2],"split_indices":[0,0,0,0,0,0,0,0,0,0,0,0,0,0,0,0,0],"split_type":[0,0,0,0,0,0,0,0,0,0,0,0,0,0,0,0,0],"sum_hessian":[1E2,8.4E1,1.6E1,5.8E1,2.6E1,1.1E1,5E0,1.9E1,3.9E1,1.2E1,1.4E1,3.6E1,3E0,7E0,5E0,2E0,3E0],"tree_param":{"num_deleted":"0","num_feature":"77","num_nodes":"17","size_leaf_vector":"1"}},{"base_weights":[2.4782755E0,-8.190106E0,5.1042194E1,-1.4205806E1,6.6824613E0,1.3808173E0,3.6323304E0,-1.0760514E0,-9.5341625E0,-0E0,5.6128067E-1,-5.4145783E-1,-2.3656714E-1,-9.1762847E-1,7.1378E-2,-5.4175854E-2,-0E0],"categories":[],"categories_nodes":[],"categories_segments":[],"categories_sizes":[],"default_left":[0,0,0,0,0,0,0,0,0,0,0,0,0,0,0,0,0],"id":31,"left_children":[1,3,5,7,9,-1,-1,-1,11,13,-1,-1,-1,15,-1,-1,-1],"loss_changes":[5.470397E4,8.0836284E3,3.3967031E3,1.4753027E3,8.105377E2,0E0,0E0,0E0,8.883325E1,2.2685913E1,0E0,0E0,0E0,9.7165394E-1,0E0,0E0,0E0],"parents":[2147483647,0,0,1,1,2,2,3,3,4,4,8,8,9,9,13,13],"right_children":[2,4,6,8,10,-1,-1,-1,12,14,-1,-1,-1,16,-1,-1,-1],"split_conditions":[-2.9043755E-2,-2.4414356E-1,2.4651833E-1,-3.696737E-1,-1.8751314E-1,1.3808173E0,3.6323304E0,-1.0760514E0,-2.8833887E-1,-2.1739425E-1,5.6128067E-1,-5.4145783E-1,-2.3656714E-1,-2.2706601E-1,7.1378E-2,-5.4175854E-2,-0E0],"split_indices":[0,0,0,0,0,0,0,0,0,0,0,0,0,0,0,0,0],"split_type":[0,0,0,0,0,0,0,0,0,0,0,0,0,0,0,0,0],"sum_hessian":[1E2,8.4E1,1.6E1,6E1,2.4E1,1.1E1,5E0,1.9E1,4.1E1,1.1E1,1.3E1,2.9E1,1.2E1,7E0,4E0,5E0,2E0],"tree_param":{"num_deleted":"0","num_feature":"77","num_nodes":"17","size_leaf_vector":"1"}},{"base_weights":[2.4620054E0,-7.8260293E0,4.92869E1,-1.3273811E1,7.1973286E0,1.3265711E0,3.5188203E0,-9.713802E-1,-8.201281E0,1.2440054E0,5.732755E-1,-4.4623038E-1,-1.21618055E-1,-1.1086697E-1,1.2758675E-1,-1.4002665E-2,-0E0],"categories":[],"categories_nodes":[],"categories_segments":[],"categories_sizes":[],"default_left":[0,0,0,0,0,0,0,0,0,0,0,0,0,0,0,0,0],"id":32,"left_children":[1,3,5,7,9,-1,-1,-1,11,13,-1,-1,-1,15,-1,-1,-1],"loss_changes":[5.0858906E4,7.4191875E3,3.3227578E3,1.4957432E3,5.6703796E2,0E0,0E0,0E0,8.32478E1,3.0535736E1,0E0,0E0,0E0,4.383855E-1,0E0,0E0,0E0],"parents":[2147483647,0,0,1,1,2,2,3,3,4,4,8,8,9,9,13,13],"right_children":[2,4,6,8,10,-1,-1,-1,12,14,-1,-1,-1,16,-1,-1,-1],"split_conditions":[-2.9043755E-2,-2.3283221E-1,2.4651833E-1,-3.5091972E-1,-1.4720495E-1,1.3265711E0,3.5188203E0,-9.713802E-1,-2.6131323E-1,-2.1048586E-1,5.732755E-1,-4.4623038E-1,-1.21618055E-1,-2.1912596E-1,1.2758675E-1,-1.4002665E-2,-0E0],"split_indices":[0,0,0,0,0,0,0,0,0,0,0,0,0,0,0,0,0],"split_type":[0,0,0,0,0,0,0,0,0,0,0,0,0,0,0,0,0],"sum_hessian":[1E2,8.4E1,1.6E1,6.2E1,2.2E1,1.1E1,5E0,2.4E1,3.8E1,1.1E1,1.1E1,3.2E1,6E0,6E0,5E0,4E0,2E0],"tree_param":{"num_deleted":"0","num_feature":"77","num_nodes":"17","size_leaf_vector":"1"}},{"base_weights":[2.454702E0,-7.4647174E0,4.759288E1,-1.2684241E1,6.92181E0,1.2744559E0,3.4088566E0,-1.0319201E0,-8.782572E0,4.411177E-4,1.00612E1,-5.255591E-1,-2.299705E-1,-2.539215E-1,3.3635203E-2,1.2357725E-1,5.507541E-1,-1.3602666E-2,-0E0],"categories":[],"categories_nodes":[],"categories_segments":[],"categories_sizes":[],"default_left":[0,0,0,0,0,0,0,0,0,0,0,0,0,0,0,0,0,0,0],"id":33,"left_children":[1,3,5,7,9,-1,-1,-1,11,13,15,-1,-1,17,-1,-1,-1,-1,-1],"loss_changes":[4.7263742E4,6.8078193E3,3.2441406E3,1.414627E3,5.230853E2,0E0,0E0,0E0,1.7906494E2,3.2309914E0,1.4427612E1,0E0,0E0,2.2819638E-3,0E0,0E0,0E0,0E0,0E0],"parents":[2147483647,0,0,1,1,2,2,3,3,4,4,8,8,9,9,10,10,13,13],"right_children":[2,4,6,8,10,-1,-1,-1,12,14,16,-1,-1,18,-1,-1,-1,-1,-1],"split_conditions":[-2.9043755E-2,-2.3283221E-1,2.4651833E-1,-3.7562415E-1,-1.9105023E-1,1.2744559E0,3.4088566E0,-1.0319201E0,-2.2523107E-1,-2.1739425E-1,-1.4720495E-1,-5.255591E-1,-2.299705E-1,-2.1912596E-1,3.3635203E-2,1.2357725E-1,5.507541E-1,-1.3602666E-2,-0E0],"split_indices":[0,0,0,0,0,0,0,0,2,0,0,0,0,0,0,0,0,0,0],"split_type":[0,0,0,0,0,0,0,0,0,0,0,0,0,0,0,0,0,0,0],"sum_hessian":[1E2,8.4E1,1.6E1,6.2E1,2.2E1,1.1E1,5E0,1.6E1,4.6E1,8E0,1.4E1,2.9E1,1.7E1,5E0,3E0,3E0,1.1E1,4E0,1E0],"tree_param":{"num_deleted":"0","num_feature":"77","num_nodes":"19","size_leaf_vector":"1"}},{"base_weights":[2.4364758E0,-7.129246E0,4.595797E1,-1.2135603E1,6.6627903E0,1.2243879E0,3.30233E0,-9.8847073E-1,-8.391741E0,-0E0,9.683023E0,-5.0174475E-1,-2.2019668E-1,-2.471199E-1,3.2794252E-2,1.2048773E-1,5.2911747E-1,-1.3214002E-2,-0E0],"categories":[],"categories_nodes":[],"categories_segments":[],"categories_sizes":[],"default_left":[0,0,0,0,0,0,0,0,0,0,0,0,0,0,0,0,0,0,0],"id":34,"left_children":[1,3,5,7,9,-1,-1,-1,11,13,15,-1,-1,17,-1,-1,-1,-1,-1],"loss_changes":[4.3940992E4,6.260679E3,3.1617695E3,1.3036748E3,4.8411682E2,0E0,0E0,0E0,1.5961963E2,3.069657E0,8.710815E0,0E0,0E0,3.6162138E-4,0E0,0E0,0E0,0E0,0E0],"parents":[2147483647,0,0,1,1,2,2,3,3,4,4,8,8,9,9,10,10,13,13],"right_children":[2,4,6,8,10,-1,-1,-1,12,14,16,-1,-1,18,-1,-1,-1,-1,-1],"split_conditions":[-2.9043755E-2,-2.3283221E-1,2.4651833E-1,-3.7562415E-1,-1.9105023E-1,1.2243879E0,3.30233E0,-9.8847073E-1,-2.2523107E-1,-2.1739425E-1,-1.4720495E-1,-5.0174475E-1,-2.2019668E-1,-2.1912596E-1,3.2794252E-2,1.2048773E-1,5.2911747E-1,-1.3214002E-2,-0E0],"split_indices":[0,0,0,0,0,0,0,0,2,0,0,0,0,0,0,0,0,0,0],"split_type":[0,0,0,0,0,0,0,0,0,0,0,0,0,0,0,0,0,0,0],"sum_hessian":[1E2,8.4E1,1.6E1,6.2E1,2.2E1,1.1E1,5E0,1.6E1,4.6E1,8E0,1.4E1,2.9E1,1.7E1,5E0,3E0,3E0,1.1E1,4E0,1E0],"tree_param":{"num_deleted":"0","num_feature":"77","num_nodes":"19","size_leaf_vector":"1"}},{"base_weights":[2.4161115E0,-6.8087597E0,4.438008E1,-1.2029949E1,5.4105287E0,1.1762872E0,3.1991322E0,-9.468509E-1,-8.3489895E0,-3.524933E-1,9.319394E0,-4.8757288E-1,-2.3555215E-1,-1.0644844E0,5.2999115E-1,1.17475644E-1,5.083308E-1,-5.724729E-2,-0E0,-0E0,3.1974476E-2],"categories":[],"categories_nodes":[],"categories_segments":[],"categories_sizes":[],"default_left":[0,0,0,0,0,0,0,0,0,0,0,0,0,0,0,0,0,0,0,0,0],"id":35,"left_children":[1,3,5,7,9,-1,-1,-1,11,13,15,-1,-1,17,19,-1,-1,-1,-1,-1,-1],"loss_changes":[4.085422E4,5.759037E3,3.0764336E3,1.0474404E3,6.5854144E2,0E0,0E0,0E0,6.795288E1,1.1557983E1,3.6934814E0,0E0,0E0,4.6683693E-1,4.8744643E-1,0E0,0E0,0E0,0E0,0E0,0E0],"parents":[2147483647,0,0,1,1,2,2,3,3,4,4,8,8,9,9,10,10,13,13,14,14],"right_children":[2,4,6,8,10,-1,-1,-1,12,14,16,-1,-1,18,20,-1,-1,-1,-1,-1,-1],"split_conditions":[-2.9043755E-2,-2.4703588E-1,2.4651833E-1,-3.7562415E-1,-1.9105023E-1,1.1762872E0,3.1991322E0,-9.468509E-1,-2.9633418E-1,-2.1912596E-1,-1.4720495E-1,-4.8757288E-1,-2.3555215E-1,-2.2706601E-1,-2.1739425E-1,1.17475644E-1,5.083308E-1,-5.724729E-2,-0E0,-0E0,3.1974476E-2],"split_indices":[0,0,0,0,0,0,0,0,0,0,0,0,0,0,0,0,0,0,0,0,0],"split_type":[0,0,0,0,0,0,0,0,0,0,0,0,0,0,0,0,0,0,0,0,0],"sum_hessian":[1E2,8.4E1,1.6E1,5.9E1,2.5E1,1.1E1,5E0,1.6E1,4.3E1,1.1E1,1.4E1,2.7E1,1.6E1,7E0,4E0,3E0,1.1E1,6E0,1E0,1E0,3E0],"tree_param":{"num_deleted":"0","num_feature":"77","num_nodes":"21","size_leaf_vector":"1"}},{"base_weights":[2.3913693E0,-6.5054684E0,4.28572E1,-1.1114615E1,6.178972E0,1.130076E0,3.0991595E0,-8.814886E-1,-7.451592E0,-0E0,4.4848713E-1,-4.2311993E-1,-1.5563747E-1,-1.0952187E-2,3.1175105E-2],"categories":[],"categories_nodes":[],"categories_segments":[],"categories_sizes":[],"default_left":[0,0,0,0,0,0,0,0,0,0,0,0,0,0,0],"id":36,"left_children":[1,3,5,7,9,-1,-1,-1,11,13,-1,-1,-1,-1,-1],"loss_changes":[3.799097E4,5.3023096E3,2.988879E3,1.1069644E3,4.132646E2,0E0,0E0,0E0,1.03954834E2,2.7163706E0,0E0,0E0,0E0,0E0,0E0],"parents":[2147483647,0,0,1,1,2,2,3,3,4,4,8,8,9,9],"right_children":[2,4,6,8,10,-1,-1,-1,12,14,-1,-1,-1,-1,-1],"split_conditions":[-2.9043755E-2,-2.3283221E-1,2.4651833E-1,-3.0913636E-1,-1.9105023E-1,1.130076E0,3.0991595E0,-8.814886E-1,-2.8073043E-1,-2.1739425E-1,4.4848713E-1,-4.2311993E-1,-1.5563747E-1,-1.0952187E-2,3.1175105E-2],"split_indices":[0,0,0,2,0,0,0,0,0,0,0,0,0,0,0],"split_type":[0,0,0,0,0,0,0,0,0,0,0,0,0,0,0],"sum_hessian":[1E2,8.4E1,1.6E1,6.2E1,2.2E1,1.1E1,5E0,1.8E1,4.4E1,8E0,1.4E1,3.3E1,1.1E1,5E0,3E0],"tree_param":{"num_deleted":"0","num_feature":"77","num_nodes":"15","size_leaf_vector":"1"}},{"base_weights":[2.365132E0,-5.6654153E0,4.410768E1,-1.0496516E1,7.1749277E0,1.11442E0,3.002311E0,-1.4151589E1,-4.935796E0,1.2469928E0,5.2605385E-1,-8.8141125E-1,-4.7489643E-1,-2.728788E-1,-8.094597E-2,-0E0,1.0679179E-1],"categories":[],"categories_nodes":[],"categories_segments":[],"categories_sizes":[],"default_left":[0,0,0,0,0,0,0,0,0,0,0,0,0,0,0,0,0],"id":37,"left_children":[1,3,5,7,9,-1,-1,11,13,15,-1,-1,-1,-1,-1,-1,-1],"loss_changes":[3.5353742E4,5.7535146E3,1.732375E3,1.0937163E3,4.5283423E2,0E0,0E0,5.8257812E1,1.2991882E1,1.6279465E1,0E0,0E0,0E0,0E0,0E0,0E0,0E0],"parents":[2147483647,0,0,1,1,2,2,3,3,4,4,7,7,8,8,9,9],"right_children":[2,4,6,8,10,-1,-1,12,14,16,-1,-1,-1,-1,-1,-1,-1],"split_conditions":[-1.5484876E-2,-2.2973725E-1,2.4651833E-1,-3.0681652E-1,-1.4720495E-1,1.11442E0,3.002311E0,-3.782954E-1,-2.5460747E-1,-2.1048586E-1,5.2605385E-1,-8.8141125E-1,-4.7489643E-1,-2.728788E-1,-8.094597E-2,-0E0,1.0679179E-1],"split_indices":[0,0,0,0,0,0,0,0,0,0,0,0,0,0,0,0,0],"split_type":[0,0,0,0,0,0,0,0,0,0,0,0,0,0,0,0,0],"sum_hessian":[1E2,8.6E1,1.4E1,6.3E1,2.3E1,9E0,5E0,3.5E1,2.8E1,1E1,1.3E1,1.5E1,2E1,2.2E1,6E0,5E0,5E0],"tree_param":{"num_deleted":"0","num_feature":"77","num_nodes":"17","size_leaf_vector":"1"}},{"base_weights":[2.3340077E0,-5.1531863E0,4.413685E1,-1.0053968E1,7.3250036E0,1.0855974E0,2.9084885E0,-6.959328E-1,-5.129674E0,1.2059186E0,5.2970046E-1,-2.8640264E-1,-8.875744E-2,-0E0,1.0345449E-1],"categories":[],"categories_nodes":[],"categories_segments":[],"categories_sizes":[],"default_left":[0,0,0,0,0,0,0,0,0,0,0,0,0,0,0],"id":38,"left_children":[1,3,5,7,9,-1,-1,-1,11,13,-1,-1,-1,-1,-1],"loss_changes":[3.2997863E4,5.730153E3,1.0862891E3,1.0037456E3,4.7816345E2,0E0,0E0,0E0,2.2736633E1,1.5343952E1,0E0,0E0,0E0,0E0,0E0],"parents":[2147483647,0,0,1,1,2,2,3,3,4,4,8,8,9,9],"right_children":[2,4,6,8,10,-1,-1,-1,12,14,-1,-1,-1,-1,-1],"split_conditions":[-1.5670288E-2,-2.2973725E-1,2.4651833E-1,-2.5724572E-1,-1.4720495E-1,1.0855974E0,2.9084885E0,-6.959328E-1,-2.6131323E-1,-2.1048586E-1,5.2970046E-1,-2.8640264E-1,-8.875744E-2,-0E0,1.0345449E-1],"split_indices":[1,0,0,2,0,0,0,0,0,0,0,0,0,0,0],"split_type":[0,0,0,0,0,0,0,0,0,0,0,0,0,0,0],"sum_hessian":[1E2,8.7E1,1.3E1,6.3E1,2.4E1,8E0,5E0,3.2E1,3.1E1,1E1,1.4E1,2.4E1,7E0,5E0,5E0],"tree_param":{"num_deleted":"0","num_feature":"77","num_nodes":"15","size_leaf_vector":"1"}},{"base_weights":[2.3204603E0,-4.646495E0,4.4255898E1,-9.602986E0,7.4630737E0,1.215229E0,3.0848625E0,-8.045234E-1,-6.521564E0,1.1661283E0,5.3279555E-1,-3.9918435E-1,-3.481087E0,-0E0,1.0022154E-1,-1.7831387E-1,-0E0],"categories":[],"categories_nodes":[],"categories_segments":[],"categories_sizes":[],"default_left":[0,0,0,0,0,0,0,0,0,0,0,0,0,0,0,0,0],"id":39,"left_children":[1,3,5,7,9,-1,-1,-1,11,13,-1,-1,15,-1,-1,-1,-1],"loss_changes":[3.0788838E4,5.681192E3,5.4908594E2,9.5935547E2,5.0202087E2,0E0,0E0,0E0,1.1597241E2,1.4463823E1,0E0,0E0,4.897461E-1,0E0,0E0,0E0,0E0],"parents":[2147483647,0,0,1,1,2,2,3,3,4,4,8,8,9,9,12,12],"right_children":[2,4,6,8,10,-1,-1,-1,12,14,-1,-1,16,-1,-1,-1,-1],"split_conditions":[-5.197247E-3,-2.2973725E-1,2.941402E-1,-3.7562415E-1,-1.4720495E-1,1.215229E0,3.0848625E0,-8.045234E-1,-2.2693932E-1,-2.1048586E-1,5.3279555E-1,-3.9918435E-1,-2.3283221E-1,-0E0,1.0022154E-1,-1.7831387E-1,-0E0],"split_indices":[72,0,0,0,0,0,0,0,2,0,0,0,0,0,0,0,0],"split_type":[0,0,0,0,0,0,0,0,0,0,0,0,0,0,0,0,0],"sum_hessian":[1E2,8.8E1,1.2E1,6.3E1,2.5E1,9E0,3E0,1.6E1,4.7E1,1E1,1.5E1,2.8E1,1.9E1,5E0,5E0,1.8E1,1E0],"tree_param":{"num_deleted":"0","num_feature":"77","num_nodes":"17","size_leaf_vector":"1"}},{"base_weights":[2.306621E0,-4.4402723E0,4.2909782E1,-9.189968E0,7.1597533E0,1.169658E0,3.0077407E0,-7.706487E-1,-6.233827E0,1.1275823E0,5.105959E-1,-3.746044E-1,-1.5613118E-1,-0E0,9.163522E-2],"categories":[],"categories_nodes":[],"categories_segments":[],"categories_sizes":[],"default_left":[0,0,0,0,0,0,0,0,0,0,0,0,0,0,0],"id":40,"left_children":[1,3,5,7,9,-1,-1,-1,11,13,-1,-1,-1,-1,-1],"loss_changes":[2.886489E4,5.2152437E3,6.597422E2,8.8260254E2,4.5828967E2,0E0,0E0,0E0,1.043208E2,1.3700504E1,0E0,0E0,0E0,0E0,0E0],"parents":[2147483647,0,0,1,1,2,2,3,3,4,4,8,8,9,9],"right_children":[2,4,6,8,10,-1,-1,-1,12,14,-1,-1,-1,-1,-1],"split_conditions":[-5.197247E-3,-2.2973725E-1,2.941402E-1,-3.7562415E-1,-1.4720495E-1,1.169658E0,3.0077407E0,-7.706487E-1,-2.9506058E-1,-2.1739425E-1,5.105959E-1,-3.746044E-1,-1.5613118E-1,-0E0,9.163522E-2],"split_indices":[72,0,0,0,0,0,0,0,67,0,0,0,0,0,0],"split_type":[0,0,0,0,0,0,0,0,0,0,0,0,0,0,0],"sum_hessian":[1E2,8.8E1,1.2E1,6.3E1,2.5E1,9E0,3E0,1.6E1,4.7E1,1E1,1.5E1,3E1,1.7E1,4E0,6E0],"tree_param":{"num_deleted":"0","num_feature":"77","num_nodes":"15","size_leaf_vector":"1"}},{"base_weights":[2.291707E0,-4.2423162E0,4.1606438E1,-8.792655E0,6.8665876E0,1.1257957E0,2.9325469E0,-7.3820037E-1,-5.9559817E0,1.0852902E0,4.8932132E-1,-3.6775774E-1,-3.2671506E0,-0E0,1.00891665E-1,-1.6729204E-1,-0E0],"categories":[],"categories_nodes":[],"categories_segments":[],"categories_sizes":[],"default_left":[0,0,0,0,0,0,0,0,0,0,0,0,0,0,0,0,0],"id":41,"left_children":[1,3,5,7,9,-1,-1,-1,11,13,-1,-1,15,-1,-1,-1,-1],"loss_changes":[2.706324E4,4.784963E3,7.5675195E2,8.127168E2,4.1904614E2,0E0,0E0,0E0,9.477124E1,1.3189443E1,0E0,0E0,7.740326E-1,0E0,0E0,0E0,0E0],"parents":[2147483647,0,0,1,1,2,2,3,3,4,4,8,8,9,9,12,12],"right_children":[2,4,6,8,10,-1,-1,-1,12,14,-1,-1,16,-1,-1,-1,-1],"split_conditions":[-5.197247E-3,-2.2973725E-1,2.941402E-1,-3.7562415E-1,-1.4720495E-1,1.1257957E0,2.9325469E0,-7.3820037E-1,-2.9633418E-1,-2.0066673E-1,4.8932132E-1,-3.6775774E-1,-2.3283221E-1,-0E0,1.00891665E-1,-1.6729204E-1,-0E0],"split_indices":[72,0,0,0,0,0,0,0,0,0,0,0,0,0,0,0,0],"split_type":[0,0,0,0,0,0,0,0,0,0,0,0,0,0,0,0,0],"sum_hessian":[1E2,8.8E1,1.2E1,6.3E1,2.5E1,9E0,3E0,1.6E1,4.7E1,1E1,1.5E1,2.7E1,2E1,6E0,4E0,1.9E1,1E0],"tree_param":{"num_deleted":"0","num_feature":"77","num_nodes":"17","size_leaf_vector":"1"}},{"base_weights":[2.2746782E0,-4.0535703E0,4.034445E1,-8.4150915E0,6.5900397E0,1.0835785E0,2.859233E0,-7.192979E-1,-5.7735057E0,1.6399013E0,4.935081E-1,-3.5909256E-1,-3.2080524E0,-0E0,1.3674766E-1,-1.6403759E-1,-0E0],"categories":[],"categories_nodes":[],"categories_segments":[],"categories_sizes":[],"default_left":[0,0,0,0,0,0,0,0,0,0,0,0,0,0,0,0,0],"id":42,"left_children":[1,3,5,7,9,-1,-1,-1,11,13,-1,-1,15,-1,-1,-1,-1],"loss_changes":[2.5377443E4,4.394449E3,8.4126953E2,7.5149756E2,3.8305933E2,0E0,0E0,0E0,9.436609E1,2.698058E1,0E0,0E0,5.582428E-1,0E0,0E0,0E0,0E0],"parents":[2147483647,0,0,1,1,2,2,3,3,4,4,8,8,9,9,12,12],"right_children":[2,4,6,8,10,-1,-1,-1,12,14,-1,-1,16,-1,-1,-1,-1],"split_conditions":[-5.197247E-3,-2.2973725E-1,2.941402E-1,-3.782954E-1,-1.2487702E-1,1.0835785E0,2.859233E0,-7.192979E-1,-2.988028E-1,-2.0066673E-1,4.935081E-1,-3.5909256E-1,-2.3283221E-1,-0E0,1.3674766E-1,-1.6403759E-1,-0E0],"split_indices":[72,0,0,0,0,0,0,0,0,0,0,0,0,0,0,0,0],"split_type":[0,0,0,0,0,0,0,0,0,0,0,0,0,0,0,0,0],"sum_hessian":[1E2,8.8E1,1.2E1,6.3E1,2.5E1,9E0,3E0,1.5E1,4.8E1,1.2E1,1.3E1,2.7E1,2.1E1,6E0,6E0,2E1,1E0],"tree_param":{"num_deleted":"0","num_feature":"77","num_nodes":"17","size_leaf_vector":"1"}},{"base_weights":[2.2572E0,-3.8719265E0,3.912246E1,-7.838538E0,6.8721256E0,1.0429443E0,2.7877524E0,-1.0927302E1,-3.5085785E0,1.9360287E0,4.7345906E-1,-7.2687405E-1,-3.753371E-1,-2.0177928E-1,-4.428932E-2,-0E0,1.3218935E-1],"categories":[],"categories_nodes":[],"categories_segments":[],"categories_sizes":[],"default_left":[0,0,0,0,0,0,0,0,0,0,0,0,0,0,0,0,0],"id":43,"left_children":[1,3,5,7,9,-1,-1,11,13,15,-1,-1,-1,-1,-1,-1,-1],"loss_changes":[2.379798E4,4.0417256E3,9.143633E2,7.655576E2,2.5549402E2,0E0,0E0,9.7779785E1,2.5046844E1,1.4179794E1,0E0,0E0,0E0,0E0,0E0,0E0,0E0],"parents":[2147483647,0,0,1,1,2,2,3,3,4,4,7,7,8,8,9,9],"right_children":[2,4,6,8,10,-1,-1,12,14,16,-1,-1,-1,-1,-1,-1,-1],"split_conditions":[-5.197247E-3,-2.2706601E-1,2.941402E-1,-3.0681652E-1,-1.2487702E-1,1.0429443E0,2.7877524E0,-3.8347208E-1,-2.4909918E-1,-2.0066673E-1,4.7345906E-1,-7.2687405E-1,-3.753371E-1,-2.0177928E-1,-4.428932E-2,-0E0,1.3218935E-1],"split_indices":[72,0,0,0,0,0,0,0,0,0,0,0,0,0,0,0,0],"split_type":[0,0,0,0,0,0,0,0,0,0,0,0,0,0,0,0,0],"sum_hessian":[1E2,8.8E1,1.2E1,6.5E1,2.3E1,9E0,3E0,3.5E1,3E1,1E1,1.3E1,1.2E1,2.3E1,2.3E1,7E0,4E0,6E0],"tree_param":{"num_deleted":"0","num_feature":"77","num_nodes":"17","size_leaf_vector":"1"}},{"base_weights":[2.2339802E0,-3.7031567E0,3.7939148E1,-7.510505E0,6.6048884E0,1.0038341E0,2.7180586E0,-5.7838184E-1,-4.298152E0,1.8750193E0,4.5422456E-1,-2.4877112E-1,-5.690072E-2,-0E0,1.2778312E-1],"categories":[],"categories_nodes":[],"categories_segments":[],"categories_sizes":[],"default_left":[0,0,0,0,0,0,0,0,0,0,0,0,0,0,0],"id":44,"left_children":[1,3,5,7,9,-1,-1,-1,11,13,-1,-1,-1,-1,-1],"loss_changes":[2.232456E4,3.722045E3,9.770176E2,7.0534985E2,2.3191321E2,0E0,0E0,0E0,6.28183E1,1.3078629E1,0E0,0E0,0E0,0E0,0E0],"parents":[2147483647,0,0,1,1,2,2,3,3,4,4,8,8,9,9],"right_children":[2,4,6,8,10,-1,-1,-1,12,14,-1,-1,-1,-1,-1],"split_conditions":[-5.197247E-3,-2.2706601E-1,2.941402E-1,-3.4181905E-1,-1.2487702E-1,1.0038341E0,2.7180586E0,-5.7838184E-1,-2.6131323E-1,-2.0066673E-1,4.5422456E-1,-2.4877112E-1,-5.690072E-2,-0E0,1.2778312E-1],"split_indices":[72,0,0,0,0,0,0,0,0,0,0,0,0,0,0],"split_type":[0,0,0,0,0,0,0,0,0,0,0,0,0,0,0],"sum_hessian":[1E2,8.8E1,1.2E1,6.5E1,2.3E1,9E0,3E0,2.5E1,4E1,1E1,1.3E1,3.1E1,9E0,4E0,6E0],"tree_param":{"num_deleted":"0","num_feature":"77","num_nodes":"15","size_leaf_vector":"1"}},{"base_weights":[2.222556E0,-3.3082867E0,3.8234688E1,-6.978232E0,7.284555E0,9.785126E-1,2.6501074E0,-9.939213E0,-2.907263E0,2.6827846E0,4.8412558E-1,-6.872234E-1,-3.4501204E-1,-1.711175E-1,-4.4434968E-1,-0E0,1.5025677E-1,-2.4041409E-2,-0E0],"categories":[],"categories_nodes":[],"categories_segments":[],"categories_sizes":[],"default_left":[0,0,0,0,0,0,0,0,0,0,0,0,0,0,0,0,0,0,0],"id":45,"left_children":[1,3,5,7,9,-1,-1,11,13,15,-1,-1,-1,-1,17,-1,-1,-1,-1],"loss_changes":[2.0964604E4,3.728401E3,6.018262E2,7.3140356E2,1.7321228E2,0E0,0E0,1.2518848E2,3.083731E1,5.7739105E0,0E0,0E0,0E0,0E0,1.0629535E-1,0E0,0E0,0E0,0E0],"parents":[2147483647,0,0,1,1,2,2,3,3,4,4,7,7,8,8,9,9,14,14],"right_children":[2,4,6,8,10,-1,-1,12,14,16,-1,-1,-1,-1,18,-1,-1,-1,-1],"split_conditions":[3.2506925E-3,-2.1739425E-1,2.941402E-1,-3.0543485E-1,-1.01351626E-1,9.785126E-1,2.6501074E0,-3.8400632E-1,-2.4414356E-1,-2.0066673E-1,4.8412558E-1,-6.872234E-1,-3.4501204E-1,-1.711175E-1,-2.1912596E-1,-0E0,1.5025677E-1,-2.4041409E-2,-0E0],"split_indices":[0,0,0,0,0,0,0,0,0,0,0,0,0,0,0,0,0,0,0],"split_type":[0,0,0,0,0,0,0,0,0,0,0,0,0,0,0,0,0,0,0],"sum_hessian":[1E2,8.9E1,1.1E1,6.7E1,2.2E1,8E0,3E0,3.6E1,3.1E1,1E1,1.2E1,1.1E1,2.5E1,2.4E1,7E0,2E0,8E0,6E0,1E0],"tree_param":{"num_deleted":"0","num_feature":"77","num_nodes":"19","size_leaf_vector":"1"}},{"base_weights":[2.1996994E0,-3.162371E0,3.7107655E1,-6.686291E0,7.004091E0,9.429302E-1,2.5838544E0,-6.249733E-1,-4.527669E0,2.5903208E0,4.6476036E-1,-2.7619115E-1,-1.3929299E0,-0E0,1.4479302E-1,-8.3969526E-2,-0E0],"categories":[],"categories_nodes":[],"categories_segments":[],"categories_sizes":[],"default_left":[0,0,0,0,0,0,0,0,0,0,0,0,0,0,0,0,0],"id":46,"left_children":[1,3,5,7,9,-1,-1,-1,11,13,-1,-1,15,-1,-1,-1,-1],"loss_changes":[1.9699363E4,3.4358325E3,6.575547E2,6.745569E2,1.5680774E2,0E0,0E0,0E0,1.3795374E2,5.01915E0,0E0,0E0,4.560364E0,0E0,0E0,0E0,0E0],"parents":[2147483647,0,0,1,1,2,2,3,3,4,4,8,8,9,9,12,12],"right_children":[2,4,6,8,10,-1,-1,-1,12,14,-1,-1,16,-1,-1,-1,-1],"split_conditions":[3.2506925E-3,-2.1739425E-1,2.941402E-1,-3.8165435E-1,-1.01351626E-1,9.429302E-1,2.5838544E0,-6.249733E-1,-2.757011E-1,-2.0066673E-1,4.6476036E-1,-2.7619115E-1,-2.2973725E-1,-0E0,1.4479302E-1,-8.3969526E-2,-0E0],"split_indices":[0,0,0,1,0,0,0,0,0,0,0,0,0,0,0,0,0],"split_type":[0,0,0,0,0,0,0,0,0,0,0,0,0,0,0,0,0],"sum_hessian":[1E2,8.9E1,1.1E1,6.7E1,2.2E1,8E0,3E0,1.4E1,5.3E1,1E1,1.2E1,3.8E1,1.5E1,2E0,8E0,1.1E1,4E0],"tree_param":{"num_deleted":"0","num_feature":"77","num_nodes":"17","size_leaf_vector":"1"}},{"base_weights":[2.1816218E0,-3.0163598E0,3.6015152E1,-6.398169E0,6.7346697E0,9.0864176E-1,2.519258E0,-9.061892E0,-2.5271568E0,2.501219E0,4.461696E-1,-6.3567287E-1,-3.1463322E-1,-1.4640647E-1,-2.5963083E-1,-0E0,1.395279E-1,-1.3878966E-2,-0E0],"categories":[],"categories_nodes":[],"categories_segments":[],"categories_sizes":[],"default_left":[0,0,0,0,0,0,0,0,0,0,0,0,0,0,0,0,0,0,0],"id":47,"left_children":[1,3,5,7,9,-1,-1,11,13,15,-1,-1,-1,-1,17,-1,-1,-1,-1],"loss_changes":[1.8506105E4,3.1623987E3,7.054785E2,6.299109E2,1.4183899E2,0E0,0E0,1.2646362E2,2.134793E1,4.3300934E0,0E0,0E0,0E0,0E0,9.7286105E-3,0E0,0E0,0E0,0E0],"parents":[2147483647,0,0,1,1,2,2,3,3,4,4,7,7,8,8,9,9,14,14],"right_children":[2,4,6,8,10,-1,-1,12,14,16,-1,-1,-1,-1,18,-1,-1,-1,-1],"split_conditions":[3.2506925E-3,-2.1739425E-1,2.941402E-1,-3.05606E-1,-1.01351626E-1,9.0864176E-1,2.519258E0,-3.8400632E-1,-2.420434E-1,-2.0066673E-1,4.461696E-1,-6.3567287E-1,-3.1463322E-1,-1.4640647E-1,-2.1912596E-1,-0E0,1.395279E-1,-1.3878966E-2,-0E0],"split_indices":[0,0,0,67,0,0,0,0,0,0,0,0,0,0,0,0,0,0,0],"split_type":[0,0,0,0,0,0,0,0,0,0,0,0,0,0,0,0,0,0,0],"sum_hessian":[1E2,8.9E1,1.1E1,6.7E1,2.2E1,8E0,3E0,3.7E1,3E1,1E1,1.2E1,1.1E1,2.6E1,2.4E1,6E0,2E0,8E0,5E0,1E0],"tree_param":{"num_deleted":"0","num_feature":"77","num_nodes":"19","size_leaf_vector":"1"}},{"base_weights":[2.1569514E0,-2.8828177E0,3.495609E1,-6.130225E0,6.475861E0,8.7560034E-1,2.4562767E0,-5.8775467E-1,-4.193584E0,2.4153566E0,4.2832294E-1,-2.6459664E-1,-1.6336743E0,-0E0,1.344542E-1,-9.561443E-2,-0E0],"categories":[],"categories_nodes":[],"categories_segments":[],"categories_sizes":[],"default_left":[0,0,0,0,0,0,0,0,0,0,0,0,0,0,0,0,0],"id":48,"left_children":[1,3,5,7,9,-1,-1,-1,11,13,-1,-1,15,-1,-1,-1,-1],"loss_changes":[1.7392371E4,2.914417E3,7.4628516E2,5.8274927E2,1.2818518E2,0E0,0E0,0E0,1.2047827E2,3.7015915E0,0E0,0E0,7.1076508E0,0E0,0E0,0E0,0E0],"parents":[2147483647,0,0,1,1,2,2,3,3,4,4,8,8,9,9,12,12],"right_children":[2,4,6,8,10,-1,-1,-1,12,14,-1,-1,16,-1,-1,-1,-1],"split_conditions":[3.2506925E-3,-2.1739425E-1,2.941402E-1,-3.1757212E-1,-1.01351626E-1,8.7560034E-1,2.4562767E0,-5.8775467E-1,-2.8833887E-1,-2.0066673E-1,4.2832294E-1,-2.6459664E-1,-2.2973725E-1,-0E0,1.344542E-1,-9.561443E-2,-0E0],"split_indices":[0,0,0,3,0,0,0,0,0,0,0,0,0,0,0,0,0],"split_type":[0,0,0,0,0,0,0,0,0,0,0,0,0,0,0,0,0],"sum_hessian":[1E2,8.9E1,1.1E1,6.7E1,2.2E1,8E0,3E0,1.3E1,5.4E1,1E1,1.2E1,3.5E1,1.9E1,2E0,8E0,1.5E1,4E0],"tree_param":{"num_deleted":"0","num_feature":"77","num_nodes":"17","size_leaf_vector":"1"}},{"base_weights":[2.1350732E0,-2.751077E0,3.39294E1,-5.868285E0,6.2272353E0,8.437603E-1,2.3948698E0,-8.411128E0,-2.3748815E0,2.3326116E0,4.111898E-1,-5.876097E-1,-2.8839874E-1,-1.4408801E-1,-5.5849713E-1,-0E0,1.2956475E-1,-3.147232E-2,-0E0],"categories":[],"categories_nodes":[],"categories_segments":[],"categories_sizes":[],"default_left":[0,0,0,0,0,0,0,0,0,0,0,0,0,0,0,0,0,0,0],"id":49,"left_children":[1,3,5,7,9,-1,-1,11,13,15,-1,-1,-1,-1,17,-1,-1,-1,-1],"loss_changes":[1.6343627E4,2.6837407E3,7.806006E2,5.40324E2,1.1573468E2,0E0,0E0,1.0600757E2,1.9594467E1,3.128891E0,0E0,0E0,0E0,0E0,2.1899939E-1,0E0,0E0,0E0,0E0],"parents":[2147483647,0,0,1,1,2,2,3,3,4,4,7,7,8,8,9,9,14,14],"right_children":[2,4,6,8,10,-1,-1,12,14,16,-1,-1,-1,-1,18,-1,-1,-1,-1],"split_conditions":[3.2506925E-3,-2.1739425E-1,2.941402E-1,-3.0543485E-1,-1.01351626E-1,8.437603E-1,2.3948698E0,-3.8400632E-1,-2.4909918E-1,-2.0066673E-1,4.111898E-1,-5.876097E-1,-2.8839874E-1,-1.4408801E-1,-2.2706601E-1,-0E0,1.2956475E-1,-3.147232E-2,-0E0],"split_indices":[0,0,0,0,0,0,0,0,0,0,0,0,0,0,0,0,0,0,0],"split_type":[0,0,0,0,0,0,0,0,0,0,0,0,0,0,0,0,0,0,0],"sum_hessian":[1E2,8.9E1,1.1E1,6.7E1,2.2E1,8E0,3E0,3.6E1,3.1E1,1E1,1.2E1,1.1E1,2.5E1,2.2E1,9E0,2E0,8E0,7E0,2E0],"tree_param":{"num_deleted":"0","num_feature":"77","num_nodes":"19","size_leaf_vector":"1"}},{"base_weights":[2.107485E0,-2.238819E0,3.5793327E1,-5.624515E0,6.713596E0,8.184453E-1,2.3349981E0,-5.4187566E-1,-3.8301027E0,2.6451025E0,4.653018E-1,-2.556401E-1,-1.8823649E0,-0E0,1.4560318E-1,-1.0676984E-1,-0E0],"categories":[],"categories_nodes":[],"categories_segments":[],"categories_sizes":[],"default_left":[0,0,0,0,0,0,0,0,0,0,0,0,0,0,0,0,0],"id":50,"left_children":[1,3,5,7,9,-1,-1,-1,11,13,-1,-1,15,-1,-1,-1,-1],"loss_changes":[1.5387632E4,2.9602585E3,1.2283887E2,5.00937E2,1.870293E2,0E0,0E0,0E0,9.954382E1,5.292984E0,0E0,0E0,1.0225723E1,0E0,0E0,0E0,0E0],"parents":[2147483647,0,0,1,1,2,2,3,3,4,4,8,8,9,9,12,12],"right_children":[2,4,6,8,10,-1,-1,-1,12,14,-1,-1,16,-1,-1,-1,-1],"split_conditions":[2.576285E-2,-2.1739425E-1,2.941402E-1,-3.1757212E-1,-9.764468E-2,8.184453E-1,2.3349981E0,-5.4187566E-1,-2.988028E-1,-2.0066673E-1,4.653018E-1,-2.556401E-1,-2.2973725E-1,-0E0,1.4560318E-1,-1.0676984E-1,-0E0],"split_indices":[0,0,0,3,1,0,0,0,0,0,0,0,0,0,0,0,0],"split_type":[0,0,0,0,0,0,0,0,0,0,0,0,0,0,0,0,0],"sum_hessian":[1E2,9.1E1,9E0,6.7E1,2.4E1,6E0,3E0,1.3E1,5.4E1,1.2E1,1.2E1,2.9E1,2.5E1,2E0,1E1,2.1E1,4E0],"tree_param":{"num_deleted":"0","num_feature":"77","num_nodes":"17","size_leaf_vector":"1"}},{"base_weights":[2.0855906E0,-2.1360471E0,3.4800354E1,-5.3859415E0,6.4528694E0,7.911636E-1,2.2766235E0,-5.312678E-1,-3.7178543E0,2.548036E0,4.4668975E-1,-4.476826E0,-9.79717E-1,-0E0,1.400032E-1,-2.5663805E-1,-1.2813966E-1,-5.8455747E-2,-0E0],"categories":[],"categories_nodes":[],"categories_segments":[],"categories_sizes":[],"default_left":[0,0,0,0,0,0,0,0,0,0,0,0,0,0,0,0,0,0,0],"id":51,"left_children":[1,3,5,7,9,-1,-1,-1,11,13,-1,15,17,-1,-1,-1,-1,-1,-1],"loss_changes":[1.4513652E4,2.725959E3,1.5984082E2,4.645891E2,1.7031079E2,0E0,0E0,0E0,9.646271E1,4.5373383E0,0E0,3.8739014E-1,1.4514141E0,0E0,0E0,0E0,0E0,0E0,0E0],"parents":[2147483647,0,0,1,1,2,2,3,3,4,4,8,8,9,9,11,11,12,12],"right_children":[2,4,6,8,10,-1,-1,-1,12,14,-1,16,18,-1,-1,-1,-1,-1,-1],"split_conditions":[2.576285E-2,-2.1739425E-1,2.941402E-1,-3.8347208E-1,-9.764468E-2,7.911636E-1,2.2766235E0,-5.312678E-1,-2.7384046E-1,-2.0066673E-1,4.4668975E-1,-3.0493745E-1,-2.2973725E-1,-0E0,1.400032E-1,-2.5663805E-1,-1.2813966E-1,-5.8455747E-2,-0E0],"split_indices":[0,0,0,0,1,0,0,0,0,0,0,0,0,0,0,0,0,0,0],"split_type":[0,0,0,0,0,0,0,0,0,0,0,0,0,0,0,0,0,0,0],"sum_hessian":[1E2,9.1E1,9E0,6.7E1,2.4E1,6E0,3E0,1.2E1,5.5E1,1.2E1,1.2E1,4.1E1,1.4E1,2E0,1E1,2.6E1,1.5E1,1E1,4E0],"tree_param":{"num_deleted":"0","num_feature":"77","num_nodes":"19","size_leaf_vector":"1"}},{"base_weights":[2.0585756E0,-2.0424907E0,3.3835617E1,-5.163734E0,6.202491E0,7.6479137E-1,2.2197082E0,-5.2236587E-1,-3.6135414E0,2.4547033E0,4.2882234E-1,-2.3930751E-1,-1.7310655E0,-0E0,1.3461863E-1,-9.794404E-2,-0E0],"categories":[],"categories_nodes":[],"categories_segments":[],"categories_sizes":[],"default_left":[0,0,0,0,0,0,0,0,0,0,0,0,0,0,0,0,0],"id":52,"left_children":[1,3,5,7,9,-1,-1,-1,11,13,-1,-1,15,-1,-1,-1,-1],"loss_changes":[1.3693848E4,2.5130579E3,1.9252148E2,4.319629E2,1.550011E2,0E0,0E0,0E0,9.234723E1,3.8517609E0,0E0,0E0,8.188675E0,0E0,0E0,0E0,0E0],"parents":[2147483647,0,0,1,1,2,2,3,3,4,4,8,8,9,9,12,12],"right_children":[2,4,6,8,10,-1,-1,-1,12,14,-1,-1,16,-1,-1,-1,-1],"split_conditions":[2.576285E-2,-2.1739425E-1,2.941402E-1,-3.8400632E-1,-9.764468E-2,7.6479137E-1,2.2197082E0,-5.2236587E-1,-2.988028E-1,-2.0066673E-1,4.2882234E-1,-2.3930751E-1,-2.2973725E-1,-0E0,1.3461863E-1,-9.794404E-2,-0E0],"split_indices":[0,0,0,0,1,0,0,0,0,0,0,0,0,0,0,0,0],"split_type":[0,0,0,0,0,0,0,0,0,0,0,0,0,0,0,0,0],"sum_hessian":[1E2,9.1E1,9E0,6.7E1,2.4E1,6E0,3E0,1.1E1,5.6E1,1.2E1,1.2E1,3.1E1,2.5E1,2E0,1E1,2.1E1,4E0],"tree_param":{"num_deleted":"0","num_feature":"77","num_nodes":"17","size_leaf_vector":"1"}},{"base_weights":[2.0341258E0,-1.9496233E0,3.2898296E1,-4.9462843E0,5.962048E0,7.392983E-1,2.1642158E0,-4.2120543E-1,-2.8992102E0,2.3649611E0,4.1166964E-1,-1.7522305E-1,-6.930827E-1,9.460386E-3,1.3474655E-1,-3.841823E-2,-0E0],"categories":[],"categories_nodes":[],"categories_segments":[],"categories_sizes":[],"default_left":[0,0,0,0,0,0,0,0,0,0,0,0,0,0,0,0,0],"id":53,"left_children":[1,3,5,7,9,-1,-1,-1,11,13,-1,-1,15,-1,-1,-1,-1],"loss_changes":[1.2918691E4,2.3150466E3,2.2123926E2,4.024391E2,1.4098425E2,0E0,0E0,0E0,4.9746002E1,3.4710083E0,0E0,0E0,4.6953917E-1,0E0,0E0,0E0,0E0],"parents":[2147483647,0,0,1,1,2,2,3,3,4,4,8,8,9,9,12,12],"right_children":[2,4,6,8,10,-1,-1,-1,12,14,-1,-1,16,-1,-1,-1,-1],"split_conditions":[2.576285E-2,-2.1739425E-1,2.941402E-1,-3.0180094E-1,-9.764468E-2,7.392983E-1,2.1642158E0,-4.2120543E-1,-2.6777947E-1,-1.9105023E-1,4.1166964E-1,-1.7522305E-1,-2.2706601E-1,9.460386E-3,1.3474655E-1,-3.841823E-2,-0E0],"split_indices":[0,0,0,2,1,0,0,0,0,0,0,0,0,0,0,0,0],"split_type":[0,0,0,0,0,0,0,0,0,0,0,0,0,0,0,0,0],"sum_hessian":[1E2,9.1E1,9E0,6.7E1,2.4E1,6E0,3E0,2.1E1,4.6E1,1.2E1,1.2E1,3.4E1,1.2E1,3E0,9E0,1E1,2E0],"tree_param":{"num_deleted":"0","num_feature":"77","num_nodes":"17","size_leaf_vector":"1"}},{"base_weights":[2.0154614E0,-1.8538151E0,3.1987595E1,-4.7293253E0,5.733117E0,7.146551E-1,2.1101103E0,-4.8529705E-1,-3.274061E0,2.4545503E0,4.0543342E-1,-2.2544666E-1,-1.7469254E0,9.223875E-3,1.3909976E-1,-1.01214364E-1,-7.056342E-3],"categories":[],"categories_nodes":[],"categories_segments":[],"categories_sizes":[],"default_left":[0,0,0,0,0,0,0,0,0,0,0,0,0,0,0,0,0],"id":54,"left_children":[1,3,5,7,9,-1,-1,-1,11,13,-1,-1,15,-1,-1,-1,-1],"loss_changes":[1.2183122E4,2.1300662E3,2.4631738E2,3.8566687E2,1.2945111E2,0E0,0E0,0E0,7.5121155E1,4.420601E0,0E0,0E0,9.064522E0,0E0,0E0,0E0,0E0],"parents":[2147483647,0,0,1,1,2,2,3,3,4,4,8,8,9,9,12,12],"right_children":[2,4,6,8,10,-1,-1,-1,12,14,-1,-1,16,-1,-1,-1,-1],"split_conditions":[2.576285E-2,-2.1739425E-1,2.941402E-1,-3.8400632E-1,-9.309078E-2,7.146551E-1,2.1101103E0,-4.8529705E-1,-3.0493745E-1,-1.9105023E-1,4.0543342E-1,-2.2544666E-1,-2.420434E-1,9.223875E-3,1.3909976E-1,-1.01214364E-1,-7.056342E-3],"split_indices":[0,0,0,0,67,0,0,0,0,0,0,0,0,0,0,0,0],"split_type":[0,0,0,0,0,0,0,0,0,0,0,0,0,0,0,0,0],"sum_hessian":[1E2,9.1E1,9E0,6.7E1,2.4E1,6E0,3E0,1.1E1,5.6E1,1.3E1,1.1E1,2.7E1,2.9E1,3E0,1E1,2.3E1,6E0],"tree_param":{"num_deleted":"0","num_feature":"77","num_nodes":"17","size_leaf_vector":"1"}},{"base_weights":[1.9892372E0,-1.7695895E0,3.1102737E1,-4.532246E0,5.515401E0,6.9083303E-1,2.0573575E0,-4.923008E-1,-3.2312305E0,2.3658843E0,3.8950598E-1,-2.2347431E-1,-1.7136663E0,8.99334E-3,1.337498E-1,-1.0416694E-1,-3.7923813E-1,-2.0190326E-2,-0E0],"categories":[],"categories_nodes":[],"categories_segments":[],"categories_sizes":[],"default_left":[0,0,0,0,0,0,0,0,0,0,0,0,0,0,0,0,0,0,0],"id":55,"left_children":[1,3,5,7,9,-1,-1,-1,11,13,-1,-1,15,-1,-1,-1,17,-1,-1],"loss_changes":[1.1495342E4,1.9648625E3,2.6806543E2,3.6233215E2,1.1783154E2,0E0,0E0,0E0,7.92832E1,3.6584167E0,0E0,0E0,8.983543E0,0E0,0E0,0E0,6.779814E-2,0E0,0E0],"parents":[2147483647,0,0,1,1,2,2,3,3,4,4,8,8,9,9,12,12,16,16],"right_children":[2,4,6,8,10,-1,-1,-1,12,14,-1,-1,16,-1,-1,-1,18,-1,-1],"split_conditions":[2.576285E-2,-2.1739425E-1,2.941402E-1,-3.8853824E-1,-9.309078E-2,6.9083303E-1,2.0573575E0,-4.923008E-1,-3.05606E-1,-1.9105023E-1,3.8950598E-1,-2.2347431E-1,-2.4909918E-1,8.99334E-3,1.337498E-1,-1.0416694E-1,-2.1912596E-1,-2.0190326E-2,-0E0],"split_indices":[0,0,0,0,67,0,0,0,67,0,0,0,0,0,0,0,0,0,0],"split_type":[0,0,0,0,0,0,0,0,0,0,0,0,0,0,0,0,0,0,0],"sum_hessian":[1E2,9.1E1,9E0,6.7E1,2.4E1,6E0,3E0,9E0,5.8E1,1.3E1,1.1E1,2.8E1,3E1,3E0,1E1,2.1E1,9E0,8E0,1E0],"tree_param":{"num_deleted":"0","num_feature":"77","num_nodes":"19","size_leaf_vector":"1"}},{"base_weights":[1.9607991E0,-1.6909953E0,3.0242989E1,-4.346005E0,5.3061776E0,6.678055E-1,2.005924E0,-4.738395E-1,-3.0901456E0,2.2806087E0,3.7420377E-1,-2.1338199E-1,-1.6424861E0,8.768527E-3,1.2860583E-1,-9.7977675E-2,-2.921094E-1,-1.5521089E-2,-0E0],"categories":[],"categories_nodes":[],"categories_segments":[],"categories_sizes":[],"default_left":[0,0,0,0,0,0,0,0,0,0,0,0,0,0,0,0,0,0,0],"id":56,"left_children":[1,3,5,7,9,-1,-1,-1,11,13,-1,-1,15,-1,-1,-1,17,-1,-1],"loss_changes":[1.0848442E4,1.8135526E3,2.8676465E2,3.380603E2,1.071792E2,0E0,0E0,0E0,7.1132385E1,2.9709015E0,0E0,0E0,7.9087524E0,0E0,0E0,0E0,2.5009692E-2,0E0,0E0],"parents":[2147483647,0,0,1,1,2,2,3,3,4,4,8,8,9,9,12,12,16,16],"right_children":[2,4,6,8,10,-1,-1,-1,12,14,-1,-1,16,-1,-1,-1,18,-1,-1],"split_conditions":[2.576285E-2,-2.1739425E-1,2.941402E-1,-3.8853824E-1,-9.309078E-2,6.678055E-1,2.005924E0,-4.738395E-1,-3.05606E-1,-1.9105023E-1,3.7420377E-1,-2.1338199E-1,-2.4703588E-1,8.768527E-3,1.2860583E-1,-9.7977675E-2,-2.1912596E-1,-1.5521089E-2,-0E0],"split_indices":[0,0,0,0,67,0,0,0,67,0,0,0,0,0,0,0,0,0,0],"split_type":[0,0,0,0,0,0,0,0,0,0,0,0,0,0,0,0,0,0,0],"sum_hessian":[1E2,9.1E1,9E0,6.7E1,2.4E1,6E0,3E0,9E0,5.8E1,1.3E1,1.1E1,2.8E1,3E1,3E0,1E1,2.2E1,8E0,7E0,1E0],"tree_param":{"num_deleted":"0","num_feature":"77","num_nodes":"19","size_leaf_vector":"1"}},{"base_weights":[1.9321597E0,-1.615732E0,2.9407604E1,-4.1673856E0,5.1051188E0,6.455452E-1,1.9557761E0,-4.560705E-1,-2.9550834E0,2.0359564E0,3.509962E-1,-1.9112328E-1,-1.2694767E0,-0E0,1.1074048E-1,-7.2186105E-2,-0E0],"categories":[],"categories_nodes":[],"categories_segments":[],"categories_sizes":[],"default_left":[0,0,0,0,0,0,0,0,0,0,0,0,0,0,0,0,0],"id":57,"left_children":[1,3,5,7,9,-1,-1,-1,11,13,-1,-1,15,-1,-1,-1,-1],"loss_changes":[1.0238559E4,1.6739823E3,3.026797E2,3.1538782E2,9.768634E1,0E0,0E0,0E0,6.444446E1,1.5931969E0,0E0,0E0,3.9544945E0,0E0,0E0,0E0,0E0],"parents":[2147483647,0,0,1,1,2,2,3,3,4,4,8,8,9,9,12,12],"right_children":[2,4,6,8,10,-1,-1,-1,12,14,-1,-1,16,-1,-1,-1,-1],"split_conditions":[2.576285E-2,-2.1739425E-1,2.941402E-1,-3.8853824E-1,-9.764468E-2,6.455452E-1,1.9557761E0,-4.560705E-1,-2.2693932E-1,-2.0066673E-1,3.509962E-1,-1.9112328E-1,-2.2973725E-1,-0E0,1.1074048E-1,-7.2186105E-2,-0E0],"split_indices":[0,0,0,0,1,0,0,0,2,0,0,0,0,0,0,0,0],"split_type":[0,0,0,0,0,0,0,0,0,0,0,0,0,0,0,0,0],"sum_hessian":[1E2,9.1E1,9E0,6.7E1,2.4E1,6E0,3E0,9E0,5.8E1,1.2E1,1.2E1,3.5E1,2.3E1,2E0,1E1,1.9E1,4E0],"tree_param":{"num_deleted":"0","num_feature":"77","num_nodes":"17","size_leaf_vector":"1"}},{"base_weights":[1.9040596E0,-1.5428994E0,2.859589E1,-3.993592E0,4.9081073E0,6.2402725E-1,1.9068816E0,-4.389679E-1,-2.8229368E0,2.1074433E0,3.457136E-1,-1.95114E-1,-1.4917716E0,7.6265335E-3,1.1847657E-1,-9.213945E-2,-3.726396E-1,-1.9730536E-2,-0E0],"categories":[],"categories_nodes":[],"categories_segments":[],"categories_sizes":[],"default_left":[0,0,0,0,0,0,0,0,0,0,0,0,0,0,0,0,0,0,0],"id":58,"left_children":[1,3,5,7,9,-1,-1,-1,11,13,-1,-1,15,-1,-1,-1,17,-1,-1],"loss_changes":[9.663049E3,1.5430607E3,3.1604883E2,2.946183E2,8.9944336E1,0E0,0E0,0E0,5.9391846E1,2.0693436E0,0E0,0E0,6.472603E0,0E0,0E0,0E0,6.3428044E-2,0E0,0E0],"parents":[2147483647,0,0,1,1,2,2,3,3,4,4,8,8,9,9,12,12,16,16],"right_children":[2,4,6,8,10,-1,-1,-1,12,14,-1,-1,16,-1,-1,-1,18,-1,-1],"split_conditions":[2.576285E-2,-2.1739425E-1,2.941402E-1,-3.8853824E-1,-9.309078E-2,6.2402725E-1,1.9068816E0,-4.389679E-1,-3.05606E-1,-1.9105023E-1,3.457136E-1,-1.95114E-1,-2.5460747E-1,7.6265335E-3,1.1847657E-1,-9.213945E-2,-2.1912596E-1,-1.9730536E-2,-0E0],"split_indices":[0,0,0,0,67,0,0,0,67,0,0,0,0,0,0,0,0,0,0],"split_type":[0,0,0,0,0,0,0,0,0,0,0,0,0,0,0,0,0,0,0],"sum_hessian":[1E2,9.1E1,9E0,6.7E1,2.4E1,6E0,3E0,9E0,5.8E1,1.3E1,1.1E1,2.8E1,3E1,3E0,1E1,2E1,1E1,9E0,1E0],"tree_param":{"num_deleted":"0","num_feature":"77","num_nodes":"19","size_leaf_vector":"1"}},{"base_weights":[1.8745352E0,-1.4745611E0,2.7807156E1,-3.830245E0,4.7225337E0,6.032265E-1,1.8592093E0,-4.2250657E-1,-2.7002554E0,2.0319695E0,3.321318E-1,-1.8630241E-1,-1.4305482E0,-0E0,1.0992841E-1,-8.084508E-2,-0E0],"categories":[],"categories_nodes":[],"categories_segments":[],"categories_sizes":[],"default_left":[0,0,0,0,0,0,0,0,0,0,0,0,0,0,0,0,0],"id":59,"left_children":[1,3,5,7,9,-1,-1,-1,11,13,-1,-1,15,-1,-1,-1,-1],"loss_changes":[9.121312E3,1.4247301E3,3.2710254E2,2.746764E2,8.1644165E1,0E0,0E0,0E0,5.3145782E1,1.6094208E0,0E0,0E0,5.6689377E0,0E0,0E0,0E0,0E0],"parents":[2147483647,0,0,1,1,2,2,3,3,4,4,8,8,9,9,12,12],"right_children":[2,4,6,8,10,-1,-1,-1,12,14,-1,-1,16,-1,-1,-1,-1],"split_conditions":[2.576285E-2,-2.1739425E-1,2.941402E-1,-3.8853824E-1,-9.309078E-2,6.032265E-1,1.8592093E0,-4.2250657E-1,-3.05606E-1,-2.0066673E-1,3.321318E-1,-1.8630241E-1,-2.3283221E-1,-0E0,1.0992841E-1,-8.084508E-2,-0E0],"split_indices":[0,0,0,0,67,0,0,0,67,0,0,0,0,0,0,0,0],"split_type":[0,0,0,0,0,0,0,0,0,0,0,0,0,0,0,0,0],"sum_hessian":[1E2,9.1E1,9E0,6.7E1,2.4E1,6E0,3E0,9E0,5.8E1,1.3E1,1.1E1,2.8E1,3E1,2E0,1.1E1,2.5E1,5E0],"tree_param":{"num_deleted":"0","num_feature":"77","num_nodes":"17","size_leaf_vector":"1"}},{"base_weights":[1.8452197E0,-1.2559582E0,2.8306696E1,-3.672527E0,4.848603E0,5.740389E-1,1.8127288E0,-4.0666252E-1,-2.581605E0,2.098505E0,3.5030818E-1,-1.5598042E-1,-6.6532856E-1,6.5197623E-3,1.1747219E-1,-3.6368635E-2,-0E0],"categories":[],"categories_nodes":[],"categories_segments":[],"categories_sizes":[],"default_left":[0,0,0,0,0,0,0,0,0,0,0,0,0,0,0,0,0],"id":60,"left_children":[1,3,5,7,9,-1,-1,-1,11,13,-1,-1,15,-1,-1,-1,-1],"loss_changes":[8.613117E3,1.4525164E3,1.2687012E2,2.562209E2,1.0382135E2,0E0,0E0,0E0,4.9092224E1,2.517128E0,0E0,0E0,4.9721813E-1,0E0,0E0,0E0,0E0],"parents":[2147483647,0,0,1,1,2,2,3,3,4,4,8,8,9,9,12,12],"right_children":[2,4,6,8,10,-1,-1,-1,12,14,-1,-1,16,-1,-1,-1,-1],"split_conditions":[1.3145187E-1,-2.1739425E-1,2.941402E-1,-3.8853824E-1,-7.5578704E-2,5.740389E-1,1.8127288E0,-4.0666252E-1,-2.757011E-1,-1.9105023E-1,3.5030818E-1,-1.5598042E-1,-2.2706601E-1,6.5197623E-3,1.1747219E-1,-3.6368635E-2,-0E0],"split_indices":[2,0,0,0,0,0,0,0,0,0,0,0,0,0,0,0,0],"split_type":[0,0,0,0,0,0,0,0,0,0,0,0,0,0,0,0,0],"sum_hessian":[1E2,9.2E1,8E0,6.7E1,2.5E1,5E0,3E0,9E0,5.8E1,1.4E1,1.1E1,4.3E1,1.5E1,3E0,1.1E1,1.3E1,2E0],"tree_param":{"num_deleted":"0","num_feature":"77","num_nodes":"17","size_leaf_vector":"1"}},{"base_weights":[1.8196508E0,-1.1962243E0,2.7551394E1,-3.5176706E0,4.6641297E0,5.561003E-1,1.7674109E0,-4.0353656E-1,-2.5074017E0,2.0213394E0,3.3654594E-1,-1.7356966E-1,-1.2840706E0,6.3567483E-3,1.12857E-1,-7.9136476E-2,-3.0550385E-1,-1.6094018E-2,-0E0],"categories":[],"categories_nodes":[],"categories_segments":[],"categories_sizes":[],"default_left":[0,0,0,0,0,0,0,0,0,0,0,0,0,0,0,0,0,0,0],"id":61,"left_children":[1,3,5,7,9,-1,-1,-1,11,13,-1,-1,15,-1,-1,-1,17,-1,-1],"loss_changes":[8.144767E3,1.339355E3,1.3669727E2,2.4012115E2,9.461755E1,0E0,0E0,0E0,5.0231934E1,1.9636993E0,0E0,0E0,4.417446E0,0E0,0E0,0E0,2.995956E-2,0E0,0E0],"parents":[2147483647,0,0,1,1,2,2,3,3,4,4,8,8,9,9,12,12,16,16],"right_children":[2,4,6,8,10,-1,-1,-1,12,14,-1,-1,16,-1,-1,-1,18,-1,-1],"split_conditions":[1.3145187E-1,-2.1739425E-1,2.941402E-1,-3.9141214E-1,-7.5578704E-2,5.561003E-1,1.7674109E0,-4.0353656E-1,-3.05606E-1,-1.9105023E-1,3.3654594E-1,-1.7356966E-1,-2.5460747E-1,6.3567483E-3,1.12857E-1,-7.9136476E-2,-2.1912596E-1,-1.6094018E-2,-0E0],"split_indices":[2,0,0,0,0,0,0,0,67,0,0,0,0,0,0,0,0,0,0],"split_type":[0,0,0,0,0,0,0,0,0,0,0,0,0,0,0,0,0,0,0],"sum_hessian":[1E2,9.2E1,8E0,6.7E1,2.5E1,5E0,3E0,8E0,5.9E1,1.4E1,1.1E1,2.9E1,3E1,3E0,1.1E1,2E1,1E1,9E0,1E0],"tree_param":{"num_deleted":"0","num_feature":"77","num_nodes":"19","size_leaf_vector":"1"}},{"base_weights":[1.7899822E0,-1.1433095E0,2.6816597E1,-3.374965E0,4.486898E0,3.6936772E-1,1.5541153E0,-3.5804284E-1,-2.271111E0,1.8100247E0,3.155758E-1,-1.3640372E-1,-5.430702E-1,-0E0,9.7337835E-2,-2.9701104E-2,-0E0],"categories":[],"categories_nodes":[],"categories_segments":[],"categories_sizes":[],"default_left":[0,0,0,0,0,0,0,0,0,0,0,0,0,0,0,0,0],"id":62,"left_children":[1,3,5,7,9,-1,-1,-1,11,13,-1,-1,15,-1,-1,-1,-1],"loss_changes":[7.7045933E3,1.2368503E3,1.4588672E2,2.2488171E2,8.624451E1,0E0,0E0,0E0,3.560257E1,6.390228E-1,0E0,0E0,2.7920485E-1,0E0,0E0,0E0,0E0],"parents":[2147483647,0,0,1,1,2,2,3,3,4,4,8,8,9,9,12,12],"right_children":[2,4,6,8,10,-1,-1,-1,12,14,-1,-1,16,-1,-1,-1,-1],"split_conditions":[1.3145187E-1,-2.1739425E-1,2.4651833E-1,-3.8400632E-1,-9.309078E-2,3.6936772E-1,1.5541153E0,-3.5804284E-1,-2.7384046E-1,-2.0066673E-1,3.155758E-1,-1.3640372E-1,-2.2706601E-1,-0E0,9.7337835E-2,-2.9701104E-2,-0E0],"split_indices":[2,0,0,0,67,0,0,0,0,0,0,0,0,0,0,0,0],"split_type":[0,0,0,0,0,0,0,0,0,0,0,0,0,0,0,0,0],"sum_hessian":[1E2,9.2E1,8E0,6.7E1,2.5E1,3E0,5E0,1.1E1,5.6E1,1.3E1,1.2E1,4.2E1,1.4E1,2E0,1.1E1,1.2E1,2E0],"tree_param":{"num_deleted":"0","num_feature":"77","num_nodes":"17","size_leaf_vector":"1"}},{"base_weights":[1.7539393E0,-1.0889285E0,2.6009449E1,-3.2317667E0,4.3134093E0,5.123703E-1,1.6843725E0,-3.8937983E-1,-2.3229795E0,1.9864345E0,3.193063E-1,-1.6096954E-1,-1.1547822E0,5.3866706E-3,1.10364735E-1,-6.397053E-2,-0E0],"categories":[],"categories_nodes":[],"categories_segments":[],"categories_sizes":[],"default_left":[0,0,0,0,0,0,0,0,0,0,0,0,0,0,0,0,0],"id":63,"left_children":[1,3,5,7,9,-1,-1,-1,11,13,-1,-1,15,-1,-1,-1,-1],"loss_changes":[7.2371943E3,1.1394083E3,2.077334E2,2.1532715E2,8.024652E1,0E0,0E0,0E0,4.607126E1,2.1252975E0,0E0,0E0,3.4636307E0,0E0,0E0,0E0,0E0],"parents":[2147483647,0,0,1,1,2,2,3,3,4,4,8,8,9,9,12,12],"right_children":[2,4,6,8,10,-1,-1,-1,12,14,-1,-1,16,-1,-1,-1,-1],"split_conditions":[1.3145187E-1,-2.1739425E-1,2.941402E-1,-3.9207533E-1,-7.574678E-2,5.123703E-1,1.6843725E0,-3.8937983E-1,-3.05606E-1,-1.9105023E-1,3.193063E-1,-1.6096954E-1,-2.2973725E-1,5.3866706E-3,1.10364735E-1,-6.397053E-2,-0E0],"split_indices":[2,0,0,0,1,0,0,0,67,0,0,0,0,0,0,0,0],"split_type":[0,0,0,0,0,0,0,0,0,0,0,0,0,0,0,0,0],"sum_hessian":[1E2,9.2E1,8E0,6.7E1,2.5E1,5E0,3E0,7E0,6E1,1.5E1,1E1,3E1,3E1,3E0,1.2E1,2.6E1,4E0],"tree_param":{"num_deleted":"0","num_feature":"77","num_nodes":"17","size_leaf_vector":"1"}},{"base_weights":[1.7254871E0,-1.0396187E0,2.5317177E1,-3.1000803E0,4.1514945E0,4.9635887E-1,1.6422628E0,-3.7575155E-1,-2.2199256E0,1.9119589E0,3.070253E-1,-1.5365271E-1,-1.1043797E0,1.2691117E-2,1.09423235E-1,-6.220755E-2,-0E0],"categories":[],"categories_nodes":[],"categories_segments":[],"categories_sizes":[],"default_left":[0,0,0,0,0,0,0,0,0,0,0,0,0,0,0,0,0],"id":64,"left_children":[1,3,5,7,9,-1,-1,-1,11,13,-1,-1,15,-1,-1,-1,-1],"loss_changes":[6.8465684E3,1.0526356E3,2.1070117E2,2.0249036E2,7.3398834E1,0E0,0E0,0E0,4.142105E1,1.7016983E0,0E0,0E0,3.0929337E0,0E0,0E0,0E0,0E0],"parents":[2147483647,0,0,1,1,2,2,3,3,4,4,8,8,9,9,12,12],"right_children":[2,4,6,8,10,-1,-1,-1,12,14,-1,-1,16,-1,-1,-1,-1],"split_conditions":[1.3145187E-1,-2.1739425E-1,2.941402E-1,-3.9207533E-1,-7.574678E-2,4.9635887E-1,1.6422628E0,-3.7575155E-1,-3.05606E-1,-1.8751314E-1,3.070253E-1,-1.5365271E-1,-2.3283221E-1,1.2691117E-2,1.09423235E-1,-6.220755E-2,-0E0],"split_indices":[2,0,0,0,1,0,0,0,67,0,0,0,0,0,0,0,0],"split_type":[0,0,0,0,0,0,0,0,0,0,0,0,0,0,0,0,0],"sum_hessian":[1E2,9.2E1,8E0,6.7E1,2.5E1,5E0,3E0,7E0,6E1,1.5E1,1E1,3E1,3E1,4E0,1.1E1,2.5E1,5E0],"tree_param":{"num_deleted":"0","num_feature":"77","num_nodes":"17","size_leaf_vector":"1"}},{"base_weights":[1.6969615E0,-9.92561E-1,2.4643665E1,-2.974436E0,3.9970438E0,4.8084757E-1,1.6012061E0,-3.6260024E-1,-2.122071E0,1.7259328E0,2.8777274E-1,-1.4666848E-1,-1.0572507E0,4.934756E-3,9.553103E-2,-6.5206595E-2,-2.2263394E-1,-1.1605231E-2,-0E0],"categories":[],"categories_nodes":[],"categories_segments":[],"categories_sizes":[],"default_left":[0,0,0,0,0,0,0,0,0,0,0,0,0,0,0,0,0,0,0],"id":65,"left_children":[1,3,5,7,9,-1,-1,-1,11,13,-1,-1,15,-1,-1,-1,17,-1,-1],"loss_changes":[6.4773975E3,9.730551E2,2.1273877E2,1.903075E2,6.705597E1,0E0,0E0,0E0,3.713971E1,5.246887E-1,0E0,0E0,2.875126E0,0E0,0E0,0E0,2.114296E-3,0E0,0E0],"parents":[2147483647,0,0,1,1,2,2,3,3,4,4,8,8,9,9,12,12,16,16],"right_children":[2,4,6,8,10,-1,-1,-1,12,14,-1,-1,16,-1,-1,-1,18,-1,-1],"split_conditions":[1.3145187E-1,-2.1739425E-1,2.941402E-1,-3.9207533E-1,-7.5578704E-2,4.8084757E-1,1.6012061E0,-3.6260024E-1,-3.05606E-1,-1.9105023E-1,2.8777274E-1,-1.4666848E-1,-2.5460747E-1,4.934756E-3,9.553103E-2,-6.5206595E-2,-2.1912596E-1,-1.1605231E-2,-0E0],"split_indices":[2,0,0,0,0,0,0,0,67,0,0,0,0,0,0,0,0,0,0],"split_type":[0,0,0,0,0,0,0,0,0,0,0,0,0,0,0,0,0,0,0],"sum_hessian":[1E2,9.2E1,8E0,6.7E1,2.5E1,5E0,3E0,7E0,6E1,1.4E1,1.1E1,3E1,3E1,3E0,1.1E1,2E1,1E1,9E0,1E0],"tree_param":{"num_deleted":"0","num_feature":"77","num_nodes":"19","size_leaf_vector":"1"}},{"base_weights":[1.6669414E0,-9.492375E-1,2.398841E1,-2.8551955E0,3.8459327E0,4.6582127E-1,1.5611761E0,-3.4990922E-1,-2.0298705E0,1.7670784E0,2.841489E-1,-1.4152394E-1,-1.038427E0,1.1540386E-2,1.00684844E-1,-6.357649E-2,-2.1460019E-1,-1.117007E-2,-0E0],"categories":[],"categories_nodes":[],"categories_segments":[],"categories_sizes":[],"default_left":[0,0,0,0,0,0,0,0,0,0,0,0,0,0,0,0,0,0,0],"id":66,"left_children":[1,3,5,7,9,-1,-1,-1,11,13,-1,-1,15,-1,-1,-1,17,-1,-1],"loss_changes":[6.1292773E3,8.9920355E2,2.139331E2,1.786795E2,6.1903687E1,0E0,0E0,0E0,3.3451202E1,9.3636703E-1,0E0,0E0,2.7383652E0,0E0,0E0,0E0,2.0599365E-4,0E0,0E0],"parents":[2147483647,0,0,1,1,2,2,3,3,4,4,8,8,9,9,12,12,16,16],"right_children":[2,4,6,8,10,-1,-1,-1,12,14,-1,-1,16,-1,-1,-1,18,-1,-1],"split_conditions":[1.3145187E-1,-2.1739425E-1,2.941402E-1,-3.9207533E-1,-7.574678E-2,4.6582127E-1,1.5611761E0,-3.4990922E-1,-3.0522883E-1,-1.8751314E-1,2.841489E-1,-1.4152394E-1,-2.5460747E-1,1.1540386E-2,1.00684844E-1,-6.357649E-2,-2.1912596E-1,-1.117007E-2,-0E0],"split_indices":[2,0,0,0,1,0,0,0,72,0,0,0,0,0,0,0,0,0,0],"split_type":[0,0,0,0,0,0,0,0,0,0,0,0,0,0,0,0,0,0,0],"sum_hessian":[1E2,9.2E1,8E0,6.7E1,2.5E1,5E0,3E0,7E0,6E1,1.5E1,1E1,2.9E1,3.1E1,4E0,1.1E1,2.1E1,1E1,9E0,1E0],"tree_param":{"num_deleted":"0","num_feature":"77","num_nodes":"19","size_leaf_vector":"1"}},{"base_weights":[1.637635E0,-9.071943E-1,2.3350897E1,-2.7410638E0,3.7032506E0,4.5126438E-1,1.5221463E0,-3.3766243E-1,-1.9419364E0,6.1486404E-2,2.4845536E-1,-1.3256283E-1,-9.4372725E-1,-5.2254803E-2,-0E0],"categories":[],"categories_nodes":[],"categories_segments":[],"categories_sizes":[],"default_left":[0,0,0,0,0,0,0,0,0,0,0,0,0,0,0],"id":67,"left_children":[1,3,5,7,9,-1,-1,-1,11,-1,-1,-1,13,-1,-1],"loss_changes":[5.799863E3,8.317489E2,2.1436914E2,1.677038E2,5.6941833E1,0E0,0E0,0E0,2.9910965E1,0E0,0E0,0E0,2.0824413E0,0E0,0E0],"parents":[2147483647,0,0,1,1,2,2,3,3,4,4,8,8,12,12],"right_children":[2,4,6,8,10,-1,-1,-1,12,-1,-1,-1,14,-1,-1],"split_conditions":[1.3145187E-1,-2.1739425E-1,2.941402E-1,-3.9207533E-1,-9.790664E-2,4.5126438E-1,1.5221463E0,-3.3766243E-1,-3.038789E-1,6.1486404E-2,2.4845536E-1,-1.3256283E-1,-2.2973725E-1,-5.2254803E-2,-0E0],"split_indices":[2,0,0,0,0,0,0,0,71,0,0,0,0,0,0],"split_type":[0,0,0,0,0,0,0,0,0,0,0,0,0,0,0],"sum_hessian":[1E2,9.2E1,8E0,6.7E1,2.5E1,5E0,3E0,7E0,6E1,1.1E1,1.4E1,3.1E1,2.9E1,2.5E1,4E0],"tree_param":{"num_deleted":"0","num_feature":"77","num_nodes":"15","size_leaf_vector":"1"}},{"base_weights":[1.6065848E0,-9.917537E-1,2.1725256E1,-2.629929E0,3.2914884E0,4.4784436E-1,1.4840925E0,-3.2584426E-1,-1.8559712E0,4.5153394E-2,2.1120381E-1,-1.2674896E-1,-8.9802766E-1,-4.9643394E-2,-0E0],"categories":[],"categories_nodes":[],"categories_segments":[],"categories_sizes":[],"default_left":[0,0,0,0,0,0,0,0,0,0,0,0,0,0,0],"id":68,"left_children":[1,3,5,7,9,-1,-1,-1,11,-1,-1,-1,13,-1,-1],"loss_changes":[5.4904424E3,6.8421594E2,3.4426416E2,1.5755267E2,3.8441956E1,0E0,0E0,0E0,2.728299E1,0E0,0E0,0E0,1.7955055E0,0E0,0E0],"parents":[2147483647,0,0,1,1,2,2,3,3,4,4,8,8,12,12],"right_children":[2,4,6,8,10,-1,-1,-1,12,-1,-1,-1,14,-1,-1],"split_conditions":[2.576285E-2,-2.1739425E-1,2.941402E-1,-3.9207533E-1,-1.0606776E-1,4.4784436E-1,1.4840925E0,-3.2584426E-1,-3.0493745E-1,4.5153394E-2,2.1120381E-1,-1.2674896E-1,-2.2973725E-1,-4.9643394E-2,-0E0],"split_indices":[0,0,0,0,0,0,0,0,0,0,0,0,0,0,0],"split_type":[0,0,0,0,0,0,0,0,0,0,0,0,0,0,0],"sum_hessian":[1E2,9.1E1,9E0,6.7E1,2.4E1,6E0,3E0,7E0,6E1,9E0,1.5E1,3.1E1,2.9E1,2.5E1,4E0],"tree_param":{"num_deleted":"0","num_feature":"77","num_nodes":"15","size_leaf_vector":"1"}},{"base_weights":[1.57491E0,-5.8341175E-1,1.2267038E0,-2.300439E0,4.5576787E0,-4.6505437E0,-1.1558256E0,9.470869E-2,3.0508408E-1,-3.2533148E-1,-1.3647895E-1,-8.0696374E-2,-0E0,-9.779195E-3,1.3193369E-2],"categories":[],"categories_nodes":[],"categories_segments":[],"categories_sizes":[],"default_left":[0,0,0,0,0,0,0,0,0,0,0,0,0,0,0],"id":69,"left_children":[1,3,-1,5,7,9,11,-1,-1,-1,-1,-1,13,-1,-1],"loss_changes":[5.1948276E3,8.831965E2,0E0,1.740087E2,5.214679E1,1.0252411E1,2.8109413E1,0E0,0E0,0E0,0E0,0E0,1.0925508E0,0E0,0E0],"parents":[2147483647,0,0,1,1,3,3,4,4,5,5,6,6,12,12],"right_children":[2,4,-1,6,8,10,12,-1,-1,-1,-1,-1,14,-1,-1],"split_conditions":[1.292414E-1,-1.8252067E-1,1.2267038E0,-3.653813E-1,-6.5925375E-2,-3.9356756E-1,-2.6131323E-1,9.470869E-2,3.0508408E-1,-3.2533148E-1,-1.3647895E-1,-8.0696374E-2,-2.1739425E-1,-9.779195E-3,1.3193369E-2],"split_indices":[0,0,0,0,0,0,0,0,0,0,0,0,0,0,0],"split_type":[0,0,0,0,0,0,0,0,0,0,0,0,0,0,0],"sum_hessian":[1E2,9.4E1,6E0,7.2E1,2.2E1,2E1,5.2E1,1.1E1,1.1E1,6E0,1.4E1,3.6E1,1.6E1,1.1E1,5E0],"tree_param":{"num_deleted":"0","num_feature":"77","num_nodes":"15","size_leaf_vector":"1"}},{"base_weights":[1.5268645E0,-8.011374E-1,2.1397736E1,-2.4252646E0,3.2735882E0,3.9635277E-1,1.4163221E0,-3.039974E-1,-1.6979213E0,1.5537667E0,2.5057876E-1,-1.18691914E-1,-8.531241E-1,1.2781001E-2,9.098788E-2,-9.892208E-1,-1.4862823E-3,-5.1508546E-2,-0E0],"categories":[],"categories_nodes":[],"categories_segments":[],"categories_sizes":[],"default_left":[0,0,0,0,0,0,0,0,0,0,0,0,0,0,0,0,0,0,0],"id":70,"left_children":[1,3,5,7,9,-1,-1,-1,11,13,-1,-1,15,-1,-1,17,-1,-1,-1],"loss_changes":[4.857342E3,6.5081915E2,2.8053516E2,1.3954916E2,4.720163E1,0E0,0E0,0E0,2.3444336E1,1.0143547E0,0E0,0E0,1.6839962E0,0E0,0E0,1.1024094E-1,0E0,0E0,0E0],"parents":[2147483647,0,0,1,1,2,2,3,3,4,4,8,8,9,9,12,12,15,15],"right_children":[2,4,6,8,10,-1,-1,-1,12,14,-1,-1,16,-1,-1,18,-1,-1,-1],"split_conditions":[1.3145187E-1,-2.1739425E-1,2.941402E-1,-3.9207533E-1,-6.5925375E-2,3.9635277E-1,1.4163221E0,-3.039974E-1,-3.0522883E-1,-1.8252067E-1,2.5057876E-1,-1.18691914E-1,-2.4414356E-1,1.2781001E-2,9.098788E-2,1.1068782E0,-1.4862823E-3,-5.1508546E-2,-0E0],"split_indices":[2,0,0,0,0,0,0,0,72,0,0,0,0,0,0,7,0,0,0],"split_type":[0,0,0,0,0,0,0,0,0,0,0,0,0,0,0,0,0,0,0],"sum_hessian":[1E2,9.2E1,8E0,6.7E1,2.5E1,5E0,3E0,7E0,6E1,1.6E1,9E0,2.9E1,3.1E1,5E0,1.1E1,2.4E1,7E0,2.2E1,2E0],"tree_param":{"num_deleted":"0","num_feature":"77","num_nodes":"19","size_leaf_vector":"1"}},{"base_weights":[1.4993188E0,-5.3173697E-1,2.3112038E1,-2.1209857E0,4.2198176E0,3.3582205E-1,1.3809141E0,-4.6503916E0,-1.1646862E0,9.3563184E-2,2.9010186E-1,-3.1684217E-1,-1.2736675E-1,-7.939928E-2,-0E0,-8.621952E-3,1.2381506E-2],"categories":[],"categories_nodes":[],"categories_segments":[],"categories_sizes":[],"default_left":[0,0,0,0,0,0,0,0,0,0,0,0,0,0,0,0,0],"id":71,"left_children":[1,3,5,7,9,-1,-1,11,13,-1,-1,-1,-1,-1,15,-1,-1],"loss_changes":[4.603383E3,7.551388E2,3.978418E1,1.5353632E2,4.4980194E1,0E0,0E0,1.1928406E0,2.839988E1,0E0,0E0,0E0,0E0,0E0,9.068585E-1,0E0,0E0],"parents":[2147483647,0,0,1,1,2,2,3,3,4,4,7,7,8,8,14,14],"right_children":[2,4,6,8,10,-1,-1,12,14,-1,-1,-1,-1,-1,16,-1,-1],"split_conditions":[1.292414E-1,-1.8252067E-1,2.941402E-1,-3.7562415E-1,-2.9043755E-2,3.3582205E-1,1.3809141E0,-3.9625722E-1,-2.6131323E-1,9.3563184E-2,2.9010186E-1,-3.1684217E-1,-1.2736675E-1,-7.939928E-2,-2.1739425E-1,-8.621952E-3,1.2381506E-2],"split_indices":[0,0,0,0,0,0,0,0,0,0,0,0,0,0,0,0,0],"split_type":[0,0,0,0,0,0,0,0,0,0,0,0,0,0,0,0,0],"sum_hessian":[1E2,9.4E1,6E0,7.2E1,2.2E1,3E0,3E0,1.6E1,5.6E1,1.2E1,1E1,5E0,1.1E1,4E1,1.6E1,1.1E1,5E0],"tree_param":{"num_deleted":"0","num_feature":"77","num_nodes":"17","size_leaf_vector":"1"}},{"base_weights":[1.4703882E0,-5.093623E-1,2.2539791E1,-2.038397E0,4.0588655E0,3.2742664E-1,1.3463911E0,-4.4081078E0,-1.0813384E0,8.9820504E-2,2.7894416E-1,-3.0694085E-1,-1.2350539E-1,-7.418746E-2,-0E0,-8.283261E-3,1.1994696E-2],"categories":[],"categories_nodes":[],"categories_segments":[],"categories_sizes":[],"default_left":[0,0,0,0,0,0,0,0,0,0,0,0,0,0,0,0,0],"id":72,"left_children":[1,3,5,7,9,-1,-1,11,13,-1,-1,-1,-1,-1,15,-1,-1],"loss_changes":[4.374856E3,6.9832275E2,3.556494E1,1.448175E2,4.1157867E1,0E0,0E0,4.3738403E0,2.46445E1,0E0,0E0,0E0,0E0,0E0,8.446222E-1,0E0,0E0],"parents":[2147483647,0,0,1,1,2,2,3,3,4,4,7,7,8,8,14,14],"right_children":[2,4,6,8,10,-1,-1,12,14,-1,-1,-1,-1,-1,16,-1,-1],"split_conditions":[1.292414E-1,-1.8252067E-1,2.941402E-1,-3.7378192E-1,-2.9043755E-2,3.2742664E-1,1.3463911E0,-3.9625722E-1,-2.6131323E-1,8.9820504E-2,2.7894416E-1,-3.0694085E-1,-1.2350539E-1,-7.418746E-2,-2.1739425E-1,-8.283261E-3,1.1994696E-2],"split_indices":[0,0,0,0,0,0,0,0,0,0,0,0,0,0,0,0,0],"split_type":[0,0,0,0,0,0,0,0,0,0,0,0,0,0,0,0,0],"sum_hessian":[1E2,9.4E1,6E0,7.2E1,2.2E1,3E0,3E0,1.7E1,5.5E1,1.2E1,1E1,5E0,1.2E1,3.9E1,1.6E1,1.1E1,5E0],"tree_param":{"num_deleted":"0","num_feature":"77","num_nodes":"17","size_leaf_vector":"1"}},{"base_weights":[1.4417723E0,-4.879803E-1,2.198185E1,-1.9591801E0,3.9041767E0,3.1924108E-1,1.3127309E0,-4.0385523E0,-9.4639635E-1,8.6227976E-2,2.6821548E-1,-2.9734898E-1,-1.20307975E-1,-6.626002E-2,-0E0,-1.5915516E-1,1.1619902E-2,-8.259083E-3,-0E0],"categories":[],"categories_nodes":[],"categories_segments":[],"categories_sizes":[],"default_left":[0,0,0,0,0,0,0,0,0,0,0,0,0,0,0,0,0,0,0],"id":73,"left_children":[1,3,5,7,9,-1,-1,11,13,-1,-1,-1,-1,-1,15,17,-1,-1,-1],"loss_changes":[4.157806E3,6.4584576E2,3.1610352E1,1.3651047E2,3.7632294E1,0E0,0E0,1.2017517E1,1.922844E1,0E0,0E0,0E0,0E0,0E0,7.866959E-1,7.969141E-5,0E0,0E0,0E0],"parents":[2147483647,0,0,1,1,2,2,3,3,4,4,7,7,8,8,14,14,15,15],"right_children":[2,4,6,8,10,-1,-1,12,14,-1,-1,-1,-1,-1,16,18,-1,-1,-1],"split_conditions":[1.292414E-1,-1.8252067E-1,2.941402E-1,-3.653813E-1,-2.9043755E-2,3.1924108E-1,1.3127309E0,-3.9625722E-1,-2.6131323E-1,8.6227976E-2,2.6821548E-1,-2.9734898E-1,-1.20307975E-1,-6.626002E-2,-2.1739425E-1,-2.1912596E-1,1.1619902E-2,-8.259083E-3,-0E0],"split_indices":[0,0,0,0,0,0,0,0,0,0,0,0,0,0,0,0,0,0,0],"split_type":[0,0,0,0,0,0,0,0,0,0,0,0,0,0,0,0,0,0,0],"sum_hessian":[1E2,9.4E1,6E0,7.2E1,2.2E1,3E0,3E0,2E1,5.2E1,1.2E1,1E1,5E0,1.5E1,3.6E1,1.6E1,1.1E1,5E0,1E1,1E0],"tree_param":{"num_deleted":"0","num_feature":"77","num_nodes":"19","size_leaf_vector":"1"}},{"base_weights":[1.4135042E0,-4.6752307E-1,2.1437853E1,-1.958923E0,3.5426533E0,3.1125996E-1,1.2799124E0,-2.5747472E-1,-1.2977991E0,7.2731875E-2,2.51348E-1,-1.754551E0,-2.764499E-1,-9.01053E-2,-0E0,-4.356846E-1,-0E0,-0E0,-2.3299469E-2,-0E0,3.0765534E-4],"categories":[],"categories_nodes":[],"categories_segments":[],"categories_sizes":[],"default_left":[0,0,0,0,0,0,0,0,0,0,0,0,0,0,0,0,0,0,0,0,0],"id":74,"left_children":[1,3,5,7,9,-1,-1,-1,11,-1,-1,13,15,-1,-1,17,19,-1,-1,-1,-1],"loss_changes":[3.9516426E3,5.9778723E2,2.790625E1,1.21039825E2,4.877954E1,0E0,0E0,0E0,2.480558E1,0E0,0E0,7.776947E-1,1.8858075E0,0E0,0E0,3.2935476E-1,2.2716432E-4,0E0,0E0,0E0,0E0],"parents":[2147483647,0,0,1,1,2,2,3,3,4,4,8,8,11,11,12,12,15,15,16,16],"right_children":[2,4,6,8,10,-1,-1,-1,12,-1,-1,14,16,-1,-1,18,20,-1,-1,-1,-1],"split_conditions":[1.292414E-1,-1.9105023E-1,2.941402E-1,-3.9141214E-1,-6.5925375E-2,3.1125996E-1,1.2799124E0,-2.5747472E-1,-2.8833887E-1,7.2731875E-2,2.51348E-1,1.0354999E0,-2.2706601E-1,-9.01053E-2,-0E0,-2.8568605E-1,-2.1739425E-1,-0E0,-2.3299469E-2,-0E0,3.0765534E-4],"split_indices":[0,0,0,0,0,0,0,0,0,0,0,17,0,0,0,0,0,0,0,0,0],"split_type":[0,0,0,0,0,0,0,0,0,0,0,0,0,0,0,0,0,0,0,0,0],"sum_hessian":[1E2,9.4E1,6E0,7E1,2.4E1,3E0,3E0,8E0,6.2E1,1.3E1,1.1E1,4E1,2.2E1,3.8E1,2E0,1.7E1,5E0,1E0,1.6E1,2E0,3E0],"tree_param":{"num_deleted":"0","num_feature":"77","num_nodes":"21","size_leaf_vector":"1"}},{"base_weights":[1.3879881E0,-4.454065E-1,2.0907467E1,-1.7709281E0,3.7244213E0,3.0347875E-1,1.2479147E0,-3.758881E0,-8.23862E-1,8.730672E-2,2.549754E-1,-2.8001076E-1,-1.10145964E-1,-5.9989203E-2,-0E0,-6.91373E-3,1.4395269E-2],"categories":[],"categories_nodes":[],"categories_segments":[],"categories_sizes":[],"default_left":[0,0,0,0,0,0,0,0,0,0,0,0,0,0,0,0,0],"id":75,"left_children":[1,3,5,7,9,-1,-1,11,13,-1,-1,-1,-1,-1,15,-1,-1],"loss_changes":[3.7549128E3,5.520182E2,2.4436768E1,1.2463103E2,2.4882965E1,0E0,0E0,1.3279327E1,1.8129864E1,0E0,0E0,0E0,0E0,0E0,1.0136837E0,0E0,0E0],"parents":[2147483647,0,0,1,1,2,2,3,3,4,4,7,7,8,8,14,14],"right_children":[2,4,6,8,10,-1,-1,12,14,-1,-1,-1,-1,-1,16,-1,-1],"split_conditions":[1.292414E-1,-1.4720495E-1,2.941402E-1,-3.653813E-1,-2.2614341E-2,3.0347875E-1,1.2479147E0,-3.9625722E-1,-2.6131323E-1,8.730672E-2,2.549754E-1,-2.8001076E-1,-1.10145964E-1,-5.9989203E-2,-2.1739425E-1,-6.91373E-3,1.4395269E-2],"split_indices":[0,0,0,0,0,0,0,0,0,0,0,0,0,0,0,0,0],"split_type":[0,0,0,0,0,0,0,0,0,0,0,0,0,0,0,0,0],"sum_hessian":[1E2,9.4E1,6E0,7.3E1,2.1E1,3E0,3E0,2E1,5.3E1,1.2E1,9E0,5E0,1.5E1,3.6E1,1.7E1,1.1E1,6E0],"tree_param":{"num_deleted":"0","num_feature":"77","num_nodes":"17","size_leaf_vector":"1"}},{"base_weights":[1.360851E0,-4.2624095E-1,2.0390337E1,-1.9127682E0,3.0182803E0,2.958921E-1,1.2167165E0,-2.5973234E-1,-1.3303431E0,1.319505E0,2.3907042E-1,-9.4688684E-2,-6.072774E-1,-0E0,6.977781E-2,-6.6408616E-1,-0E0,-3.4912273E-2,-0E0],"categories":[],"categories_nodes":[],"categories_segments":[],"categories_sizes":[],"default_left":[0,0,0,0,0,0,0,0,0,0,0,0,0,0,0,0,0,0,0],"id":76,"left_children":[1,3,5,7,9,-1,-1,-1,11,13,-1,-1,15,-1,-1,17,-1,-1,-1],"loss_changes":[3.568768E3,5.117852E2,2.119043E1,1.0001941E2,5.8725677E1,0E0,0E0,0E0,1.7621178E1,2.3451614E-1,0E0,0E0,6.915951E-1,0E0,0E0,4.209957E-1,0E0,0E0,0E0],"parents":[2147483647,0,0,